"","PC_1","PC_2","PC_3","PC_4","PC_5","PC_6","PC_7","PC_8","PC_9","PC_10","PC_11","PC_12","PC_13","PC_14","PC_15","PC_16","PC_17","PC_18","PC_19","PC_20","PC_21","PC_22","PC_23","PC_24","PC_25","PC_26","PC_27","PC_28","PC_29","PC_30","PC_31","PC_32","PC_33","PC_34","PC_35","PC_36","PC_37","PC_38","PC_39","PC_40","PC_41","PC_42","PC_43","PC_44","PC_45","PC_46","PC_47","PC_48","PC_49","PC_50"
"AAACCCACAGAGCCCT-1",-3.5184630234947,-2.60445196149409,1.79632962855522,-0.795863165887382,7.38003339013037,2.22536738091719,3.10044054317655,2.65337224338399,2.75906363320863,-5.19441348953812,1.52999391280729,-0.938126836913453,-3.5495468039552,2.82453657344316,1.70479203487572,0.99501692629658,-2.63790387308165,0.154786712939672,1.29698994009472,0.154542852409258,3.30144939848065,-3.64428562928583,-1.99052318842196,-5.05231846069595,-1.83663525814912,1.43961753633796,-4.33072044785353,1.08655736127878,0.900982073546852,-0.154284446417344,-1.86816555729972,0.780459407185536,-1.62821109006109,3.20470560143112,-1.35832499812753,-1.63362746947332,-1.09414913258835,1.75130845886644,-0.739081229410416,0.247564114485518,-0.565318014845254,-0.247571992103132,3.30814074298236,1.51685479513682,-0.648534444926652,0.55951383490787,1.14388850105204,1.2135766329728,-0.588042990930926,0.0165204750085213
"AAACCCACAGTCAGTT-1",-1.21845541983735,1.84183307090714,-0.870611120015377,0.395880821046489,1.2857919969359,0.223520927322792,0.655163153755154,3.16449875691488,4.81464345069124,1.40911995572429,2.2621828774168,-2.0317669440762,0.294778974714412,-2.29358043215088,1.04955953815323,-11.367796349271,-6.67074193367451,-5.01262760945824,-0.615498159697742,-1.53612053105914,-0.766941687041128,-0.339121023445723,-2.12101641741617,-2.20168375993608,-1.58465691915077,2.10215633084899,-4.25954850375508,1.05149147462312,0.13186999968212,0.167704399046254,0.740994129775374,1.01231771525602,-2.60369608656203,0.511686988482883,-0.872134271481041,0.839708374144752,-0.13622190574974,-0.321979735612252,-2.17454953465913,0.478069561141219,-0.313047713811503,-1.97306625265792,-0.315206834689559,-1.49925897671912,-0.335044912632799,0.939620678648648,-0.424771566657139,0.239713556821763,-1.74663456101789,1.34509984291272
"AAACCCAGTATGACAA-1",1.38322177307368,-2.55615729360629,-3.01217121653843,1.10720851896156,3.38561502114582,-7.73507500477045,-1.94044726461031,-0.108154404861082,-0.199592984512448,-2.64232785512392,2.80756305457675,4.7961775942109,2.22670148295243,-4.82178969169889,-1.80263066602011,2.1033302221722,-1.86162085986872,0.768045487968552,3.60872028300205,6.44002570062487,0.805650561632914,3.32457688226107,-1.91345155755984,-4.50120043862145,0.806824674596566,0.650471476901503,1.58377075926852,-2.3874797644753,1.7693811330241,2.94314864766441,-0.568376935600432,-2.27392721927613,-1.34358874579107,-0.629476874562634,-1.30794732410994,0.869209989935946,0.280796669409433,-0.133238693548451,-2.07078097653152,-1.98193958511966,-1.69193330233226,2.75600824599819,-0.141902438928501,-0.0127379558280783,1.24032109969059,0.298183960703502,-0.604710043412784,2.68125943667678,-0.731236410849509,-0.0938450669005497
"AAACGAAAGCGCAATG-1",5.88838785138457,5.30040601166446,-0.136569877869209,3.25608029956237,3.79931029857286,0.866490442981285,-4.39271629328156,0.328640897603771,1.42698354475513,0.742561574947553,2.95666287782354,-1.26102109264884,-0.82447455089242,0.57165083859536,1.13849176500648,-2.44449087966859,0.200815519875476,-0.394761951858454,-1.36849509620389,1.87895396869264,1.27767318924236,0.777669525211052,-2.91111791855726,-1.99053280682741,-1.34374471327633,0.834618963966032,-1.0297499438108,0.573259501401661,2.68965771293329,-0.959777350816097,-0.360815810347301,-0.178356010345147,-0.739793835780518,-0.823246831446154,-1.4304027994522,-0.641447305845201,1.22036718522906,-1.37776651645875,-0.969023864198015,-0.860575793500472,0.836266050881021,-0.416270147289254,0.709993046441497,1.28395113095525,-0.742866447742212,-0.385020905943084,1.4358642261419,1.7541847840908,-0.0154885234234681,-0.968768251286076
"AAACGAACACATGGTT-1",-2.94999880226875,1.08232287288752,-3.23966587721967,-7.81852955584392,1.01950724041902,0.799892286305134,-0.368152924010249,-2.32925698630918,0.0902743139422183,-1.59058547622186,-4.51061236668703,2.12419278214289,3.32901381041051,-0.713566501300848,2.7487744127512,-0.0504773860943476,2.19886208548291,0.0100908173982272,-4.04960127859728,3.47946454553825,-1.46437989484587,-3.21760838013077,-4.03375568121392,0.327582707467201,0.551788613796761,-2.82169909238877,-0.558562264074628,1.79679694000616,-3.03290739426716,0.69544170324833,1.97910933139755,0.257810586849139,0.21013906557783,-1.43590400433832,-0.129542146669323,-1.53048378487037,-0.389876398764333,-0.404591046296309,-0.343859602420387,-1.22529192768653,-0.171258542368291,0.124668617881881,1.97265185504129,1.40057378102677,-0.683026024769941,-1.13841453696223,0.360893116548102,-0.166955285546553,0.148896089406809,0.257097352089183
"AAACGAAGTGCGAGTA-1",7.65822265802679,0.75153274138628,0.287467638037826,3.61626646201612,-2.92695527701125,8.91406790907198,-1.86709298274678,2.83587350299456,0.789040831956166,-2.88114106547693,-3.6164188942147,-1.21853747751445,-1.75068062614093,1.03550590247491,1.92207317165592,-1.39665176816913,3.47562382740404,3.12855417269068,-0.346411331091186,-0.752363795476956,2.65369554801647,-5.42695446258924,2.9918184480789,-3.12856809703937,-0.485418848801716,-0.252282607200025,1.79947329087954,3.04592230752104,1.26215355324803,0.851318626185273,-0.930341887960917,0.751539394750862,-1.23551309958006,-2.81182708470397,0.26936077598911,-0.542896383324208,-0.270676450510643,-0.125540480644916,-0.591696406952857,-2.25329023807199,-5.77227657684871,0.909771401546507,1.40380367707717,-2.18152591187478,2.92894755249575,1.26598519824778,0.595495074574752,-0.982322149319565,0.817246761738444,-0.957720336265173
"AAACGAATCCTGTTGC-1",-2.09828041729305,-0.197152875882108,-4.82639119860011,-3.49770689466602,-1.63808952413895,0.423751461417009,0.11609266129912,1.24813871634742,-5.94140577946454,3.08907623773423,0.353573361497934,1.55393404334291,-4.50716786335763,-2.75181942566659,0.574670727517255,2.62672962929041,-2.97315405441876,-0.430775714952746,3.12885477246502,0.845520297701652,0.110776606206717,-0.0472150495441901,0.869694547086242,3.55796939928121,1.71073542022074,-1.538807197686,-2.2190406629973,-1.13948112983152,1.69221367573994,-1.55700067673572,1.5863203498064,0.335488964111799,0.950088408104416,1.43871896866367,-1.04137097460583,-0.188438017815476,-0.330220066139171,-0.360323971841946,-1.0727728666815,0.752266344004828,-1.7218786701478,0.404511067269142,-3.26852740489938,-0.175943840101065,-3.89171508314185,-2.65379494166657,-0.0369978005100403,1.28930747534492,0.530375402057805,0.254424405201054
"AAACGCTAGCAGTACG-1",1.89386315458845,-3.65853120464601,1.2750551227697,1.08253880256871,-2.48193248828724,-6.24106980576388,-4.26570722625669,-6.41239129351735,3.5983664375197,-7.22434278540303,-3.156446824403,1.76062467567515,-1.22550187431478,0.730084362454895,-0.860152015581197,0.0587926524842805,0.647519802194681,-2.34455505785884,-2.67440090566225,-3.1354792834445,0.615770943986134,-1.65586022846371,1.77432519552886,3.54002313447529,-2.31880362012245,4.12527001923572,-0.821027503209069,0.904399048898389,1.29747823177552,-4.71238148746594,3.71999285892424,-0.0837365409533142,-0.836169648301027,-2.25168077721335,0.803289229466393,1.18527006868506,-2.341940554266,-2.55659635185124,0.516025247107149,-2.25360861252566,0.947753419601575,-0.720087315958798,-1.4811740550927,-0.92521698322435,-0.645242668519836,-1.5650497507992,0.684063564381492,-1.26042633777631,-2.30661031747156,1.15916865696266
"AAACGCTAGTCTCCTC-1",-3.57967463886512,-0.992459044763104,2.74117982878445,-4.65252993910678,0.312171499215501,-4.08689261466743,-2.4593530196382,-1.50995176564038,-2.29421257641374,-4.87244745823475,-2.04949541225872,6.08856757323633,0.476913864493049,0.297197518239839,1.02882189960725,-0.443076434321984,-1.1262459039382,1.0872887654688,-1.2862695809252,1.97451966355684,0.0763103667600489,-0.956661672860244,2.55271736254924,-1.30454165536906,-2.1560763882142,1.81830037042883,0.327309327707498,-0.457925695930187,0.646909126314086,0.798085417052282,-0.519095210253955,2.16978213456059,-0.778771043585503,-1.94367611108546,-2.74889879680305,1.34037928130743,-0.136190947079624,2.13334241045329,-0.332358609903026,-0.378935306267466,2.2487235884422,-2.48983264243873,-0.899662639928618,-0.288141916881421,2.13922392807162,1.30740653850196,0.457080864766637,2.35920804318689,-0.396981436084892,-3.61339780443587
"AAACGCTAGTTGTACC-1",1.97101087003033,7.03988759011634,10.2213843361482,-6.04177574685035,-3.80625065452062,5.02131163541318,2.98730881575609,-5.76562331852342,5.13545165284474,-5.1307272478231,-0.591880054219576,0.474054599266378,-0.473611787863188,-2.04457511235362,0.134554512197734,-0.285295115536702,-1.46159807811413,-2.01375490955449,-0.860125541689934,-3.07951733021603,-0.131717245673843,2.08549348932368,2.69227888378383,-0.465685498347032,4.24912211380092,-1.04758254037005,3.23236013270005,0.1672370755943,1.89195139380171,-3.40064328286127,3.4582672376568,1.79808461285614,-0.785790323563014,-2.87034416070459,-0.984306498166283,1.08906474379224,-0.457457148029722,0.361598283592051,-0.791862532866279,2.4805619608596,0.526806476872782,1.40362562234971,-0.475560656404951,-1.71609250101437,2.10445154156711,2.38825752778128,3.2899602547383,-0.300522753164492,-3.13773067003918,2.58726570228528
"AAACGCTGTAAGACCG-1",-9.99276866038079,4.55148538961852,0.674447607595676,-6.49779846271314,-2.80187841177397,1.4790929739184,4.49840409721469,-6.45273611672523,1.75349908145621,5.94676350905887,0.0778710802003586,-5.56516954980692,-1.2551428830649,-0.650235896904062,-2.20056443123663,1.54591965436805,-1.50175227492249,-3.46976433419168,2.44431254916239,0.846240489393255,1.03058578075668,2.63052821152731,-4.44858464951227,-1.37189787934566,1.57812146151237,-0.610518027698066,1.20409951034057,-0.0313131413387158,-0.832162727471709,3.45146607043637,1.13749254770863,1.13563702793385,-3.01187007374976,-0.527911170987782,0.0291564540472708,2.94080295192549,-1.2656307548324,0.113414054877178,1.9704342356995,-1.45322819017605,3.04783991953411,-3.15379427067789,0.23510424204573,0.180798052822275,1.25789450049356,0.263552586872328,0.907519173802073,2.42125396088528,-0.498017096035593,-1.04418633762656
"AAACGCTGTCGATTCA-1",-0.86201782981217,-9.05422133945272,2.74679845138375,-2.09101235478119,-8.93584611438712,7.21453217189845,1.4931699647123,-2.40541661037126,-0.302512019837406,-5.3741186710998,0.369695608483315,2.71625126750908,-0.853492044355501,5.53645656795025,5.12304870802776,1.7114017910751,-0.134962568487617,-3.04881225269943,1.94390717404965,-0.346991018517712,-5.58037712412396,-4.61344808144955,1.55068089676836,-0.21227879865973,-1.22031240772636,-3.69945473498533,-2.36751990751607,3.10603888098363,-1.70790415768168,-0.839687332019015,0.297124779228873,1.50946453587588,-1.25697288088974,-8.28346955648655,-2.7536496986029,0.274355802693488,1.27754404016374,3.79669653618763,1.16756614730261,-1.17283768440128,-3.19385532560061,1.64185754404341,0.0264364808151082,2.0378846558885,1.69304790006733,-0.67214354202051,2.97072759284689,2.45322880171805,-5.37276473397373,1.95628780141569
"AAACGCTTCACTGTCC-1",9.28927974065438,-4.56269154664349,4.44412572587307,-2.19013505286863,-13.6345008529455,-0.00363845430045588,-1.17141424611413,-2.33518890222174,1.98084001509679,0.433783426411354,-3.29511818551353,5.51571589971537,3.43252188957927,3.45234706098313,1.26074331887299,-1.26642838231719,-2.46588341166604,2.88412834825139,2.55589320655523,0.922178827971031,2.30305127367811,-4.52250431173392,-0.444138197515888,-6.05877372973129,1.13596571179154,-3.98285372881179,-0.0483822024886606,0.134721847187233,0.654675000587718,-6.18147350778225,-2.26270817777211,0.969531078369852,1.3686566896127,1.73096946500443,5.87635596976648,-3.148439869416,-0.968563703318271,-4.14268207418093,3.5090331556552,-1.39211470834657,-0.985726966240821,3.56670557845634,2.77020394547066,4.46168950975406,0.353040391345646,0.94454642597478,2.47663739758811,-1.52924014350526,3.70059126218235,-1.59864585273408
"AAACGCTTCTAGACCA-1",-4.22752206030873,0.768029134223972,-6.06394754729937,4.37103155640379,-3.63598866744268,-0.216445373813369,5.74565397367392,-7.48972232919414,3.33291482911607,-1.60149269597131,0.154632218835102,2.75586202315354,-2.76662936202635,3.12679217034858,2.09086458284266,0.813384521441568,-0.0291894928028944,0.773697189507918,2.01567101566049,0.494287817314589,-0.737043169933812,-1.74408838953554,-2.36216015865154,2.93464216123196,-1.44891131654463,-1.82239136189347,2.46349626216254,2.82783842632648,-5.37984661244321,-0.550132318552568,2.73068954424944,4.94883713810152,-0.0665249184796315,1.32171701850984,-0.503277847546185,1.84822639263173,-1.61250833973216,0.394459901771043,1.31545020166485,1.50234411605206,1.57465877821877,0.132082435887458,-0.986452383411413,-1.02708063963515,-0.792176911808408,2.08323762487396,0.350960051765748,1.03844551832796,-1.42523453684423,1.17393894716458
"AAACGCTTCTTGCGCT-1",-11.4450596434737,0.141343386895191,-1.3233392187748,-3.84978989142017,-6.52825065684514,-6.00944975998865,4.06093213327352,0.735494093434533,-3.79016376634461,0.552120692907023,1.04389658179439,-0.817315185774665,-2.73060098150541,-0.548652607570074,0.369570481980141,0.186591914574626,2.32196865915318,1.93239327242755,5.04405315681546,-4.14878580484843,-2.55270292106805,0.126770505373792,4.02508732717421,1.77047136184503,0.00709879246901715,-0.75908681427522,2.37822901067604,1.56691604868975,-1.69019036655526,1.67893745302105,0.780160007090209,0.668490858180623,-2.14674331746641,-1.65069046635371,1.41192121659145,-2.6603218313519,-1.58000831061117,-2.0749200210137,-1.34968564176021,2.07313247618181,-2.00011046839086,-0.0798043049449532,2.06425859808453,-0.163191603501595,0.757836245234726,1.49423591787229,0.776316887584297,-1.58568239269547,-3.93448427856709,0.280837949278012
"AAAGAACCAGCTTTGA-1",1.46116891466794,-18.3313267938758,-4.39398743448306,5.35875321519357,4.47432534110714,-1.38109685270806,-7.48670865019777,-2.82410135942866,-1.96414296133984,-1.5030790891144,-0.263855931549151,3.54768842020554,-4.87292505622376,-0.236448285112809,0.742709706318309,-1.06926920534781,1.25973855699516,-4.64161350753729,-2.70019985462932,1.78721991033377,1.98250886845396,-1.40641898851176,-4.39207616846324,-1.05693386258943,1.24522810724655,2.16916306089621,1.21296355306865,3.16381127755109,-0.310212467132485,0.953768074277949,-1.23984988793476,-0.30435762767857,0.922281201741139,-0.970297793315874,-0.782181733128167,-2.86714418050309,2.4790076487547,-2.74383311449232,0.398500084720602,-0.408204455188221,0.234268132015457,1.86895216844453,3.81732326940631,0.0267740996034827,-0.851948963786261,0.954293637473449,-2.61990827075687,0.790059098155597,-0.844411048623223,-3.15437462741641
"AAAGAACGTTCGGTCG-1",-10.3753120873157,-2.4964114327925,5.33040949102972,-7.3393538281284,0.155434236750468,2.08753492560816,-1.75720683056401,2.96303006145055,-0.0925681601139935,0.487135975551825,4.43765813341668,-8.20873664141763,2.15736243799239,0.196022411867272,4.78144622662329,0.0588225024642511,0.412367429194962,-2.47021346056744,2.15415128454146,-4.5520824986473,-0.169479617792898,0.764853432185444,-1.75452125199224,2.06924218387405,-2.61239074521085,0.638571350018754,-0.862721768258219,0.693686009024106,-2.18507606415401,-0.0773979416069804,-0.205007489113683,0.830772231511609,-1.72208723132154,2.42404019151879,0.66958168088549,-0.50143985194018,2.03020377519909,-0.217285520050778,1.77933538542796,-1.22851272142344,0.336928293024585,-1.32910632327536,0.758667458637856,0.842865707921796,-0.827507799745775,2.32496907181471,-2.00816451499066,0.813275514950718,0.577350453102507,-1.74946216584545
"AAAGAACTCTCTCTAA-1",2.45259477082496,2.27749329303034,-0.0474239408861751,-1.8056376393466,7.19064399994882,1.25478446963831,0.907670669646897,-0.607573138050258,-1.02054445446395,-0.168126445444316,3.4867619548289,-3.27685695525473,0.660691353720877,-0.408792265598883,-1.89250441970545,-0.446575558778917,0.971236797248204,-0.218024179690794,-2.70446301818937,0.279097901926991,-2.00670518045748,-1.27930828380323,-1.83496035177667,-0.729758656371998,-1.70281928884307,0.846931469059146,1.84033129025941,0.380596281403932,0.0284737940194061,-0.71547736531461,1.11172806158213,1.27378851989321,1.38179653957552,-0.842397924543658,0.446038453114463,-2.90088199782112,1.18047350665853,0.559929576303565,-2.7240363878817,-1.07724923878149,-0.641573847392885,-0.846179503707997,1.83655360114921,-0.9206646737543,0.85548596239998,0.686149190535179,-2.35558849313295,-0.325509784089085,-0.0121377710526226,-2.16495502406998
"AAAGGATCATTGTGCA-1",-3.530549808484,2.99421582467257,-4.79767688222144,13.6954098145658,-5.00152002255996,-2.67772340287593,2.04380411421542,-9.55660281147624,4.04184237448061,-2.88757819361833,2.69659035070784,-5.8461559658213,-1.92250367631025,6.53199067189115,1.90779406290959,-1.18052883274838,2.50971000729889,-3.32235848332421,2.45371489765187,0.180869844686571,-1.06263955223975,3.59550471631977,-0.722288526497422,4.73941119250936,-0.611181071964681,-2.11187744426005,1.75557329484009,5.13748079454609,0.759933806142427,4.70578778443796,-0.212405310365325,2.41166818927226,3.08520214942989,3.8307313876813,-0.197242266479682,0.473259859327728,-4.92076344623223,2.30541213356901,-3.21476147047785,2.04962866474551,-2.22098932415632,-1.90072093759528,-1.50241649233359,-0.924370358294551,-1.25609629182663,-2.25874583306563,-0.610751206956369,2.42494763950993,3.49950201658267,0.425983729000369
"AAAGGATGTAGACACG-1",-1.98830138536605,6.67471442961269,0.838999352562603,1.34683934757847,3.09478892850187,-1.60741162814707,3.85003539795357,-0.0602855122850439,-0.995706857419647,-4.34823261911438,0.522472901017796,-1.93715848261309,-0.0130876002730108,-1.32159907569114,4.57698783070962,0.977310507004706,-0.194266306899919,-0.640183655546511,-0.50977842424101,1.83520840860128,-4.61993618894925,-4.25601291597523,-0.576867963463,1.71232638632856,-0.711253889271323,0.259655341399734,5.52011375823387,-1.09873452504642,-1.84381231349259,0.944305706923475,-0.8177877362477,1.6201929845774,1.24302708060875,-0.366959751566704,2.77124310401601,-1.33189826066782,1.00335092551928,3.76401829912081,-0.263759530018388,-0.196241026704846,2.79525120233803,0.144769495104601,1.60849650045034,1.14178541942591,-2.65502878300174,-1.21098665906369,0.849157536716411,-0.723401876823784,0.656396955417179,1.21837585550108
"AAAGGATGTTGCCGAC-1",-3.11350386684421,-1.77355138649925,-8.89956228541856,-1.8962588110167,-2.53838841821162,-1.79944402420897,5.07955749311977,1.54607431570289,-0.601757422293059,1.3833096468145,4.28162658631594,2.33257695371225,-3.55758639863906,-0.558943699271014,-0.588451397419556,1.10586837667831,-1.58959594334923,-3.22978420528561,-3.07967552225963,1.58271923256945,-4.02283304315735,1.91533949217354,3.0746925578292,-1.89141759641984,-2.1515614869064,-3.09366051661035,-0.58240839174343,1.80444955881731,-2.66082110769296,-2.66575615448347,2.0003406633518,-0.425183499525231,-0.541110672709479,1.02157959561251,0.698772269065291,-0.0596566587426682,0.0327856651194728,-2.16971070179828,0.270273860889274,2.29576962874846,-1.28644435170798,0.18279433615107,0.732785869215973,1.71716529778941,2.5143470092531,0.0673919380516034,3.14424021160869,-0.764683862309314,-1.28698161327783,0.882757146490078
"AAAGGGCAGAAGATCT-1",-7.55136819818486,-1.57009050917019,-4.53080979504073,-1.71096979384797,-4.87063703413016,0.852208686977307,3.24766375005738,6.03501350065372,-0.982207401455942,1.89424594116375,0.0471902941876625,2.12588648407945,3.34219732843543,-0.582285150535807,1.11882849756589,-0.621929703063999,1.34152935246967,-0.434676207737178,4.46072143203921,-0.665415339180143,2.35373373075361,-1.47995474180817,-2.38021741077311,7.15031459095334,0.282914816030132,-2.80737575671913,-1.75155922257745,-2.16918009067874,-0.828667274805925,-0.754386673637829,-2.09220246433328,-2.57731253301888,0.269448016479552,3.28967468476719,2.72841623965508,0.18185910601943,-1.6753255692669,-1.02089688332153,0.592788742371043,0.834762253569511,1.2284665489941,-0.0121999999220645,-0.669755634322422,-1.22227769514444,0.087466136281756,0.522701952260037,1.68101320377068,-1.6794414389609,0.359214696806313,-1.46390085246126
"AAAGGGCCAAAGCACG-1",-6.82436906038825,5.06485178907765,2.26302300881006,5.13549130581561,-1.95171089248596,1.26710510052453,-2.37186720688763,4.15086500026598,-2.48870762861952,7.39453814479327,-1.44778033291476,0.461965374312023,1.09848028539618,1.44992674206621,-4.31191734738723,-1.31714327208241,1.28989607800181,-0.8463799162718,-0.737201153493549,1.00338311029742,6.24323437168432,0.942942944997612,0.598137495257186,3.3342098036825,-1.60269290766832,-0.610336523690729,2.84652649332379,2.56047000086183,1.62438172530031,1.42414558175245,-2.05307655783589,-3.28036681285911,-1.46233649057982,-2.31141704648653,1.72718053710522,0.434596533782278,-1.67640387504983,0.415575449896928,1.89790571198944,-1.33211464439075,3.35947910078698,-0.629775688187408,0.975444871746572,-0.712584496234026,1.53865687452688,0.576766198022263,0.679758171363481,-0.777252061170601,0.221331457049205,0.66951684141047
"AAAGGGCGTTTGGGTT-1",-6.60222053050707,2.83203993682602,-2.12906143828764,-2.11927160093299,-1.68791506066594,-0.212735184102147,-1.27802669950894,4.4795237240976,-0.574069169654971,3.98727238987948,3.0204980532244,-0.70746623929768,-1.40229389066166,-0.112761298854767,0.55734013589571,0.0375888479100321,2.82078898909846,-3.38580477146529,3.4847703003128,-3.01392696090868,0.441476499135261,0.0487752042827013,1.48537947562485,0.599442383859509,0.286339916982859,0.544587262175611,-1.30063542469491,1.44793035770097,-1.87338384366651,0.122531959294021,-0.563475681279847,1.40192116628529,-1.51381995944805,0.924749087377423,-0.689950723922997,-1.74933806582001,-1.57929150260009,1.01632344256261,-1.3466028718494,-0.72405703512543,1.48729493283895,-0.997876000229193,-2.21061308891528,-0.186748129319317,-1.12239400925768,-2.00148389163052,-1.51352386281207,0.89117064491669,1.63011494442668,-0.0480159419392966
"AAAGGTACACTACTTT-1",0.26602829338942,-9.37251340213195,9.45874750825193,5.01325334179816,1.69860239751469,7.89162043398491,4.87950257984562,4.58145054690882,2.97212436080898,-0.581435366267803,-1.32085750433782,-0.822408267938073,3.00469736495071,4.31809315625233,2.17317166196769,-0.990115987851914,2.50768373277793,-3.79028154488464,-6.53542872737235,-2.68073862049765,2.42558561063213,0.220437775956738,3.10513225677899,-1.91767561064715,1.25992907155674,-2.01009628359191,2.96555646294619,1.06805055555585,-1.71869192495549,-7.0876590734186,0.249071867405317,0.503287186954281,3.1536298442014,0.827003401800312,-3.33377501197299,0.352950250697491,1.77626205198168,-0.759279550786928,3.77537621133071,1.13262581726173,0.706298855619214,0.587030667231161,-0.191154836171015,2.187909957952,-0.804302968064555,-0.699932680978386,-2.63311659261347,4.92880819403776,-0.534863498307775,0.102149197252118
"AAAGGTACAGACAAGC-1",9.12240085712164,0.0995097030340216,-4.29704711864361,1.83106984133668,3.04818153296037,-6.90504930013899,-3.74020135640675,0.937379132593455,-3.88285802138427,-2.38960230189725,-0.751383086364502,0.759297966897658,5.39461875372476,0.780986534221169,-6.68890042384964,0.997008688430081,-2.52399191459411,-2.82328314009438,1.9259884191679,-2.52633843065695,-0.556196964532315,-0.126614928900205,1.34930449640734,-2.71162188079252,1.36027091563151,-1.5979688682853,-1.14894505764878,-0.996720129981929,0.0417584113182866,-0.964108999199183,-2.57023291795852,0.21626216776793,1.68525620282622,-1.32375427465906,-4.34758741518629,-1.27620349901785,-1.75654475375387,0.313347630222606,-1.42387651713734,3.1100154996984,-1.30052492837678,0.0490083709872584,-1.0441334747971,0.779030093790365,0.165757649135188,-0.749055712626886,0.369150331649943,2.18470147766666,0.365227524734414,-3.52209770054611
"AAAGGTAGTATGCGTT-1",9.51341569442434,4.25893577257829,11.7046654536677,-2.55315057538496,-9.22885498008502,3.15897603598611,-0.65178262529148,0.723264604027569,-5.51284684582256,-2.31036983731843,4.34392200974335,1.47735842052695,-0.995248513586876,-1.07737650372685,0.708776773588554,0.743711502039013,-2.12116673641925,2.69963926880295,0.170574649248959,1.46855576293146,-2.83455602879465,1.74357742153504,-1.64106890593258,3.57371693238821,0.794430430687078,0.123566884292605,-0.937647754756881,1.16672236741133,-2.21703082176632,0.439632951467527,-3.45630000132852,3.01585856798046,0.190257135194961,2.13554659186867,1.50471199144017,-0.930587313635052,0.70211213941964,-0.446838610726419,0.979861651939686,2.14425202710324,1.03340366917174,1.18920214611422,-1.08104776555097,0.483029780813816,-1.70410137927106,0.935524841591362,-0.379689198666357,-1.13504213576269,-0.647588497713756,2.13636096730767
"AAAGGTAGTATTTCTC-1",-4.88854393843124,0.347019847587744,2.15300642107456,2.94249947532615,-3.6858466808371,-1.34538205266599,-1.47450771988084,3.15708045238028,0.0847846597394344,0.521317357569022,1.19458766265,-0.686565255423606,-0.579572813482179,-1.7976392261439,-0.527399319265079,1.65769522174624,-0.441690119716216,-1.42967110682774,0.658891095052656,-0.994274468302889,0.149073133088977,0.0498628178588401,-0.129371952435577,-4.0534921783623,0.376615209305301,-2.24915276178022,-0.478991989965111,1.80892664585481,2.80251939768738,-0.892648605806556,3.26356387539646,0.86180470037293,-0.587466050175452,-4.16944504021231,0.615040032434493,1.58956984572086,-1.1799327409645,1.01026149123439,0.446719294721238,5.08916888398813,3.99264010459056,0.642615691971366,-0.521347194106838,0.470001632367773,-0.278219026027639,0.713061771656057,-1.56377832717448,-2.57905230509158,-2.29683721622979,0.745668839376399
"AAAGGTAGTCTGTGGC-1",2.52963267003007,-5.57861246820394,-5.08902672638992,4.72656105599714,-3.21784111460464,-3.04787096847295,-6.42433236397626,-2.6535007810796,-0.49684667940737,0.894565438153708,2.72031797825974,1.61697941293573,-3.51115650231132,-3.58992697524582,-1.37066300371313,2.40652766617887,-3.48710294330593,-1.46827117632249,1.13021377090591,-2.42214575604665,0.677332955931794,-0.400622066251721,0.61244796614059,-1.40985038007424,1.68937901919077,0.0723331186093948,0.556800926406075,-1.34673692421487,-1.95257237863195,-1.09548263361362,3.22651745675706,1.56790208257903,-0.19063616785048,0.635665086739136,0.375805348706882,-0.137520045351063,-0.221361001205044,1.39888229893554,1.38895796630427,2.01143458121958,1.57505811403086,-1.29807999750507,1.98514760176173,-0.546094121709578,1.28801458030891,-2.18416336588117,0.0413396955389876,0.591054206497288,0.155435517672872,-0.0265192314340092
"AAAGGTATCGGTGTTA-1",24.5541664756287,-13.9793956888465,4.48064943888335,-2.64535619129515,-6.2859880369732,-2.41804841992322,-0.22448170567624,2.4372902909034,-1.10909197209309,-2.45421581392274,0.208916571608403,5.24691107633949,-3.60614822291114,-0.540406389133329,0.0855123881268479,1.03632760340346,-0.338501742264255,1.84998432187744,-0.0888192810175482,0.307113644771248,-0.264700444782871,1.35640083539184,-2.05819520591619,-1.08768929320183,1.37379076791049,-1.63893157479541,-1.15173735040958,-0.843126708429035,-0.399419344932951,1.65350528035483,-3.71969569397976,0.792681207882092,-0.936006027324102,-3.93449099465621,1.97360290144121,-3.74923626704751,-7.4621946476766,-0.392477646122566,1.18413933304883,0.482703022762066,-0.0146194032233809,-0.197598425715795,0.68958548744951,0.907676915461815,0.0186991403749322,-0.292557021534296,-0.500461436420436,1.30715183416224,2.24237833716073,-1.49626387404873
"AAAGTCCTCCGCGATG-1",-2.90594856602842,-4.71224972309055,-1.75713789348632,0.611588550117304,2.7218562878378,-4.0221782610167,-2.78552527071992,1.06553818372694,-1.98145177525488,-3.67085167787296,-5.11426029795442,-0.522531900250237,-1.8010414247296,-1.75430296704958,-3.76990538915212,0.794816346747646,4.14130749423223,-3.39649729134175,1.38128515961747,-3.63977938486052,-1.99301802384755,0.163441747080089,-1.20960469838737,0.193648237695018,-2.7614290750587,1.06696240535718,2.79034377541888,1.46684819703949,-0.500324466038168,-1.3480316579785,-0.351819832300674,-2.07599321695629,-0.245725676385497,-1.62152535385697,1.3452640917907,-1.00886325856223,0.133411903530605,-2.84857329651509,-0.0765093266774622,-1.42258238007594,-1.80768532589468,0.323683606770713,-0.54281888040174,0.436495531787416,-2.00496135489803,-1.62649085922717,1.36394700325373,0.504229707941481,-0.371546721719009,-0.172194255392264
"AAAGTGAAGCGTTCAT-1",-3.52413695140631,-12.9922069953978,6.51745862331448,-2.39013899982549,7.76270853399526,1.13264643965232,-3.97709846388722,-1.61283650756029,-0.498253685865065,2.08369690671489,-6.4088889777966,2.66399084660615,3.30816622960523,4.41189459243693,3.50325766368735,-0.77281637551236,2.74257273563446,-3.20758634779075,-6.10878768667977,2.72579804526675,-2.21638727029747,1.05590374409287,2.24144804870982,1.25219639913588,-0.0643718021327802,-0.850082089952426,-1.52463605592704,-0.789118605007394,0.807010511586175,2.21815451099483,1.30120266425664,1.19084601261069,-1.14834544427512,1.33437613300729,1.22197632859374,2.93520497083717,0.499630446502832,2.17606336880092,-0.91879908099937,0.131539959611228,1.91033518407791,1.21497234328479,0.246962341989697,-0.0678124982672609,3.5518385864007,0.785792113971189,-0.777464223481715,1.60095977377862,-0.7960555704904,-1.94336724375885
"AAAGTGAAGTGGTGGT-1",-5.86074084862601,4.14946304059077,1.92881433243105,-5.28266394622573,3.90593640644941,-6.84492530371871,2.00642520411907,2.95980975416439,-2.63184049393314,-4.74598646848165,-0.0349914223537968,-1.6843221711494,1.9722957116234,1.86104679217588,0.0213658698219601,1.11923785387882,-1.77260174902099,3.70942864455717,5.06464525374176,4.60621822925339,0.39525689660711,-1.14563699410768,-0.463319600642021,-2.14522657669117,-0.394553029822021,1.01289912824903,2.6288107366222,-1.14097422894762,-2.2055735362479,-0.78964959108559,0.176541880987686,-1.74560417124409,0.260139044352181,0.274859918011893,-1.19393702106107,-1.81741405926676,0.310358487936617,1.15428206383654,-2.05554196822304,1.53972695607131,-1.22200944238291,-0.843422934749172,-0.743110313146719,-1.83229453918146,0.400507072019582,-0.431715570554794,-1.27009447537721,-0.468340431377279,0.964881415571978,-0.908872164220662
"AAAGTGAGTCTTGTCC-1",1.91546556681572,7.74934493547217,-2.57037809198616,11.6533076997026,-2.9883229025565,-3.7690343984866,1.26497982057183,-6.81032342701489,9.50303646013617,-4.79979904356716,0.968846430111451,1.95630222738112,-3.49476208055885,5.22781848756741,-0.853106720038065,0.00295094339678417,-1.01180332317094,-1.84929992302698,2.20606522892797,0.123931294463635,1.23346130830155,1.08143487228449,-1.17736390507164,6.73042288236499,0.289790534384509,0.0820033271335714,5.12101755934352,1.62235832000707,-0.419419533797579,1.9998156022044,-2.95056166420639,5.49407279760147,0.112065357116752,2.39679712577409,0.847680953307557,0.975539581658051,-1.3802758785373,3.05621012345988,-1.15201506165992,0.675661808320579,-0.989528259136559,-0.979252928837662,2.70420007393202,-3.32271141001725,1.67547389947696,-2.96192871736227,-1.2258058035139,0.0310752566171808,0.769336843593448,-0.502885101228769
"AAATGGACAAGCAGGT-1",5.43932828461207,4.07052666386821,0.222944302414453,-6.45219226640998,4.91114799570654,1.08138899189341,-2.97737644388862,-3.68623068139425,-0.841959849051831,2.06858435757087,-0.694690673950858,-1.70514824691159,3.17275637530151,1.65839360043166,-1.06221665399611,0.612601593372489,-0.556211616810554,0.397794899660285,-0.208442677231223,-1.07774953793516,-5.17817919774168,-2.90497154421319,-2.37009228291085,0.403044192150565,0.402103296102493,0.566722151177075,1.51080755165289,0.573500725158667,1.09912639911431,0.320275885272645,1.0567153156062,2.47772201000063,-0.599812029448421,-0.655130187018757,0.897512086729219,0.666660869518602,2.68366094762777,0.758620947157387,-0.875270709059186,0.197878196936913,-0.375304094815278,-0.390489701056973,-0.159088641129705,2.16754842022661,-2.1685315264872,0.920548499179241,0.290934899822104,2.1028153867886,0.754274607739401,0.501771551276794
"AAATGGACAATACCTG-1",1.57679618891917,-15.0057682972497,-2.01279744908315,3.08401685881292,-10.3907802763107,-0.411159447213478,-8.29062671485235,1.24013093567593,-1.27769562037691,-1.72748090795938,-1.96485629884044,3.7789350019076,-5.92172526467493,1.76450215618451,3.16124898475237,-0.548015615325417,1.24823000458833,2.36874650078834,1.19263817944128,4.12871777442142,0.711013781048297,-7.05477117022031,2.27973085758583,-2.73251324074521,1.49107541339684,-0.893859902825735,5.40086620858258,-2.17996940734077,4.13278290935506,-1.23824515224283,-1.9076989879515,3.53609277172007,0.381131643314564,1.64937001908402,-0.262915132035046,-3.90223475040398,0.581235612533449,-5.48910980263536,1.72409543696448,-0.74887291778997,-0.232479140836338,-0.118612774210004,2.18463346527382,4.72285291590417,1.33110192230331,2.2992147785144,-1.14236583341306,-0.646761561611044,0.909797816914471,-4.13890928997101
"AAATGGACACGTGAGA-1",4.59840574356446,-1.38698207533282,0.109600017250005,-1.33710261572029,7.59749767012337,4.03560524541482,-7.14849810789701,-1.53470741575157,2.08359242990875,2.80472909109188,0.193517967958723,-1.85649742673928,0.340841432529527,-1.49961551124711,-2.15942772589216,-0.722017847029826,3.2075704967905,-1.23834725081795,-0.235177529994225,0.270212451002268,3.12119335159885,0.954232302411258,-1.85052206531909,0.0345464190150586,0.310763542218245,-0.372478957881772,1.8786477956954,0.540017245157654,-3.50112591093981,-0.151514338818706,1.25674998133594,0.349006788396662,-1.63169000883697,1.68250396618576,0.0538252311314023,-0.408630699891907,0.0894159457015439,1.07790838538022,-0.119948975911307,1.18226952475253,1.20694202331197,-1.1061451287207,0.778008824895606,0.489090641331124,1.05418691188975,-1.07415539466119,1.32753465145785,-1.02741523229953,0.328688252618691,-1.88042324158976
"AAATGGACACTCATAG-1",-3.81993686640398,-7.20747809734876,-5.01910588178497,-2.05995582085505,-0.36627963760686,1.24730452754793,-3.19680350446587,2.72575647500888,4.32341106734424,0.231337053563189,-3.36267650357603,2.87711023753696,0.939014222477987,-5.21522106183672,0.0806271460382257,2.76499961675784,1.71584941045316,1.71889761642511,-0.8478455861026,-0.451742344241614,-1.04013188001973,2.6643692759344,-1.13554001199484,1.43569482927855,4.77040885268986,-2.31050702588873,0.147125366039636,0.926217181576388,2.97359922061959,-1.79693058427127,-2.73527227056967,0.545186818119884,0.497488460331484,0.352179537258929,0.364180758846502,0.986474155247017,-0.386784184024952,0.607516178924045,-0.109080202547997,0.0650693846509344,-0.840236582378091,1.8748618263938,0.35177176649413,0.00275868222735952,-2.23351770504172,-1.47303573186813,-1.0346741603613,-0.223192174829988,2.78161259804604,1.29099725896045
"AAATGGAGTACTGCGC-1",1.89189480665903,10.352393883777,2.50748895457914,4.06730664160694,-1.21328171439637,-4.53797542209324,-1.85459395747672,1.56230516337249,-0.468235102232765,-0.0592751315249032,3.79142806932877,-0.378293852754098,-1.79173262995866,-0.155742512352378,1.18816907422536,-0.868039930356749,-2.02262887811308,-4.32178742081952e-05,-2.85460978638749,-0.453465873978015,-0.977761823977162,0.51454420675455,0.805160008900352,-0.936676660583548,0.98362701816919,2.41687632452557,-0.501536476587284,-0.749810376431028,1.36851581604034,-1.79268822881306,-3.59840621059142,0.521130021371777,2.67200945742219,-1.43657427436765,-1.5436448409254,-0.020344925083993,-1.12489859637432,0.469121787600751,-0.116148491388735,-0.0577178106626562,-0.960094592159777,1.51185249342609,0.30173049948885,0.168138591518308,0.593312949003903,-0.43893690150213,-1.18933861913433,-0.272381892815806,0.680479741477324,-2.25431582185507
"AAATGGAGTAGGAAAG-1",0.165137494555813,2.53346555395173,7.74709417685734,-7.87995276653224,-5.14072944675682,7.37329526554965,1.61771261856177,-5.9334723416021,-2.54994176337725,-4.65319628133178,-2.42586059568968,0.991902702082033,1.98039119356109,-2.78195757437815,0.830481893180937,1.25870320962693,0.210167262744805,-1.23529066069364,-0.764087356704486,-1.22044991328695,-2.0147188570729,0.182630895039223,-3.48950920424534,0.668580494987023,2.54125618595583,-2.75815822424482,0.743505620231757,-1.58327655633591,-0.171823396066823,-0.50184188367382,1.4037809389803,-0.321247200728927,0.688378862622062,-1.32368105087428,-2.72734674441838,0.919937073566651,2.4403316823905,1.72236355458062,-1.09743842594767,2.12249754823736,0.833425413699836,-1.74620274223212,-0.777875131608369,0.517163956930127,-0.176116733922422,-0.119907645805828,0.739042829216146,-0.0376435897441915,0.00318479966580292,1.23907117027229
"AACAAAGCAGGTATGG-1",4.49396626920005,-2.45799435231607,1.89223598880591,3.87579217342248,7.26645696077711,3.0381200391813,1.7035974142701,-5.10115570524262,-0.701346687468206,4.02773007543936,1.73109848471602,-0.97006248785409,1.06346979263355,-0.468262160310549,-4.59209230952385,-0.240899829489949,0.721786674573729,2.66065628812847,-0.402514497455232,-0.774528754321119,1.71995089020783,-0.148977686907999,0.79904822790118,2.10443907164292,2.32168057060389,-0.562496875387091,2.0877335868673,-0.220686631679528,-3.41082956144424,-0.286679584673523,2.85080653901238,1.00867212945099,3.83718029705105,0.336211463552136,-0.247308380221571,-0.931388368351433,-0.121141656777923,-0.629094471512052,-1.32152722729151,-0.0193804208659212,1.49137592110152,1.05967595199148,0.441010677949648,-1.32042820712735,-1.27311072765148,-0.944254792748665,3.31117350443104,-2.33888715138667,-3.27052952409081,0.329591697722883
"AACAAAGCATAGAGGC-1",-1.44879969607243,-3.76617284536026,1.64192573504728,-0.0766205572417683,6.15157326977471,-2.75849379771353,-3.92684560562657,0.0405790386595038,-2.62612898024344,-3.72215187795262,-3.54439607475027,-6.3811664951303,1.63997367623375,-5.30838065277519,-0.983882055728509,1.91603827976003,0.367316373322505,-0.290572938664619,-0.0286769372915689,1.08150146591834,1.2397922547263,0.58031664443327,-0.799683322901317,-0.855579405573292,0.19597814306755,1.60201152797074,-1.80359344169232,2.5448403199566,0.914716979655603,-0.716349384168474,0.0354472470190976,-0.404865635612061,-2.95491464752342,-0.0264764562149021,-2.24312175427271,1.63801569440107,-1.98396393421547,1.28823612151625,0.598952743847616,-0.123465912405219,0.909077021422735,1.09045588030959,-0.409355531137925,2.68600167851944,-1.15638786706882,-0.388442741967187,0.627086663801438,0.729379157249991,0.00175258364942632,0.325755251043894
"AACAAAGGTCCCTGTT-1",-0.269051819470087,5.71573077934166,-6.59339731003392,-2.10748401599119,-2.13500882054457,-0.559236600191831,6.19536569558191,-2.8190710516737,4.99279125277712,-0.317956361976081,2.91674907811381,-0.294684696867136,3.43218533430273,-3.01083239120719,-1.86517512323273,-1.01865390129406,6.0315137013722,-1.57660872702048,-0.296915659856258,0.99556055836592,-1.02103307741283,0.603453091587181,5.20445867492861,1.01289005592471,-3.18785385547424,1.66767372548973,-2.32424731370684,-2.8184741596361,1.89881833651794,-0.0884885676529412,0.462417179864279,-0.564090568765621,1.43539565891711,-1.13658785443152,-1.28599903503394,-0.674712567992288,1.91189880066961,-0.570702240639336,0.320197771791627,0.788343630157331,-2.7563731398464,0.249259028343355,0.577651998412126,-0.327772775266986,-0.613618034516364,1.70655498286691,0.0504151141574152,-0.465256087415833,-0.948149928033521,0.717461772553478
"AACAAAGGTGCATTAC-1",27.2932587272637,-9.94021067680791,19.9143310704189,-3.95262441708578,-3.68238247945105,-17.6088763154271,12.0848073184201,5.31211459048233,4.72802367894297,11.2750738913552,-2.55319985968215,-2.34101252952671,-5.38209106346493,-2.35170773050658,10.0069466444793,-4.8904201832572,6.69545839598697,0.889785997680945,-1.79725236570347,-1.75211603354069,2.63334875252277,-3.70342807035252,3.98317468211875,2.9851968414386,-7.93873187147042,-5.31803296884646,2.27744977056433,3.20617817559931,-0.163050992302066,-12.4142501100408,-1.23624916746259,-3.06981821262962,3.58959787085902,5.64711660017665,1.0230457588464,14.8299298117562,8.46160702831806,3.90935261273443,-7.86543071688318,1.8831287954405,7.14053598267706,-3.62425676080954,1.97490926694947,1.69873261110446,0.537038246340821,-7.08143502103608,1.86829996953781,-0.000122193878213564,-0.318719593184634,-0.896955060137841
"AACAAAGGTGCGGTAA-1",-0.426924968229129,4.1320287328803,4.01382398429692,6.12734606515463,4.15115815891945,2.31288616849769,-2.99430828689156,6.24617176035828,2.16034974640693,3.43690742812724,-2.69021158882488,1.01509563524646,6.42004967172012,3.03012617144346,-2.32635203317263,1.93477004688811,-1.93134921602879,3.19341911215544,-8.07713237313171,-0.302168126808208,2.05188040387247,3.53058840693158,1.96622621990112,2.0241733314883,-1.38335230207317,4.18139343110779,0.102846393154257,1.48778637582095,-1.11806072320348,-1.20736757765857,0.501101998373871,0.81754943164707,-3.00039012767748,-0.134604423626233,-1.77752108112596,-0.305938132527597,-0.586116484750799,-0.102364585133128,-0.158138527471831,0.312549999287548,3.35131275023705,-0.0493786800838639,3.12310633328032,-1.27545812982519,2.57245291943037,-1.40634772975659,-1.10665220718527,0.567628593811388,1.02905534053617,0.429912852361787
"AACAAAGGTGGTTTGT-1",6.78661169673637,0.660059713723756,-3.39641805291897,7.69624778218169,1.64449452062464,1.70222421461389,-5.08639309033403,-1.57224421084859,1.60927805137861,0.946845090441288,0.549426362928162,-6.69188134896154,2.0086370881811,-1.84541057255304,0.726994174022378,2.35233696709965,-1.27494935447531,0.69770141953638,0.697770740683323,-0.239749197809359,0.824679122222568,0.42512914629245,1.04088898673802,-0.832597023179701,-0.0473825608293097,0.0925929533633251,-1.32932482383968,-2.65146832034287,-1.73413252740487,1.23545404774979,2.53942682167754,-2.94250498554476,-2.24441656699019,-0.0693653055848037,1.73843136021318,0.119458059738038,-0.065372820778718,2.54285881597382,1.46382374022046,-0.958423507560648,0.636628221831011,-0.725955174302127,-0.643970549174652,-0.525472461379177,-0.759982014670709,-1.79280219515945,-1.59164367572238,0.671914273572428,-0.96932762556445,1.48991027756092
"AACAACCAGCAGTCTT-1",1.38629291314591,-4.56974160396928,2.11198467844527,5.39492762066364,10.5898559117229,0.258181933156934,2.38761680254748,-2.45103073545216,-0.162229612874952,-1.61112981010292,-0.31781612998995,7.67580057506451,-2.27102952503282,-4.89415844560174,-1.73304113139544,0.0504503687053495,1.00854839752373,2.90625653497785,2.02779337903964,0.156803963543688,-0.287593491210466,0.155410159910277,-1.71548181329977,2.05098755237153,0.0758250980958264,-1.57962969673902,0.463810830854324,-1.60671334942922,-2.6696153044932,0.956950854084853,1.45271970031854,0.846525351726361,2.04697672454198,1.88409283382271,1.27873950079655,-1.9957430404605,2.922077357186,0.20789003822458,4.43595223642422,-3.31416444593103,-0.031390759846706,-3.80141349239028,0.0829699945435262,0.123419193225602,0.5842857340618,2.3045930390158,4.11715423127253,-0.351288884578242,-1.08726071986763,-2.800532801127
"AACAACCAGGAGAATG-1",-9.92976861886169,-2.97040658307143,4.49637767782231,-1.30938750196225,3.34078258508952,-2.07339773961685,5.63567162083294,2.23014472373631,-2.88803944666517,0.316135172768581,2.38843591977729,-1.38424664898302,1.62612915748833,2.88496182740796,0.785505225909093,-0.574230041441944,-2.75886817723114,-3.44338065370617,-2.87749821972434,-6.20544954293048,4.83060582969106,1.9982188616756,1.89843757292036,-1.22025897189147,1.90088240749538,-1.8070221608108,-3.40111418929139,-2.9130228115915,0.955401378758626,0.0380497397516278,2.31180819140058,4.06012985606889,2.73514088852046,-3.35101612557511,2.91247464878988,-0.85396699951507,3.88406840291757,-0.330794450742606,0.57541174818306,0.828841231731554,-1.37990350310234,-3.33213810243569,-2.95749200599719,1.52616965975145,2.87461862041949,3.05404777619981,-0.334898906844304,2.58119492809337,-1.57355332169511,-1.98641753049638
"AACAACCAGTCATGAA-1",-5.89766421681115,0.695342425889408,3.13341625433763,2.50402629959677,-2.05189314517518,-0.434286171835464,-3.10390510512322,-4.26504891296051,-1.34741102080195,1.59038630072491,-1.14909570467914,-0.221560356638031,-2.2773538762338,0.977464988591805,-1.38784629194655,-3.71727255825737,4.45932372753555,0.666683541360861,1.15491936989736,2.31567013618158,1.58605126154109,1.10432269318586,-1.95408045324793,-3.11249873897344,0.294156859474903,-0.118376664563793,-0.0540822325528058,-2.65680628182002,-0.956385124609422,-0.961954839984672,-0.534903003043945,-0.18605620348849,-1.31688880641454,-1.76766193765295,-1.04105627043521,-1.8826428999159,-1.51962346227047,-1.77659828586074,-0.290766656176672,0.563974776343387,-1.11806428202161,-1.16074507295534,0.426501776442722,-0.830292162182228,-0.423943041755145,-0.121254390272721,-1.7230624404763,2.1877051563083,-1.78680732877284,2.01248079268194
"AACAACCCACGGCACT-1",0.253741349229803,-0.797702306497291,-3.91998714867851,-2.70326223120532,4.25846057240438,-3.07879030587964,-2.89389505807706,-1.68967558754618,1.26312883997925,-1.2051731544845,1.77023688016609,3.59513024063375,0.153051986552913,-1.75861812423957,2.01823257297162,1.02485445339224,-0.685580177460582,2.15107011240691,1.62215924872913,1.66540225118219,0.839909807996102,0.491273183844971,-0.231853980767065,-1.1555050241656,-1.84380499170333,-1.83559125089904,-1.37268332740772,2.03383960994988,-1.50938330472872,-1.90494093647459,-3.4698165417774,1.01251589578664,-1.04541920366535,-0.0502352129534175,0.24265407524897,-0.438405498701233,-1.63801826960531,2.91592907436342,-0.895209253467839,0.939576136092753,-0.59430690024688,3.01264095914076,0.0761511297482264,2.46483352482944,-0.401787838783348,-1.43519461541039,2.48097125705969,0.291008108132181,0.468840377929983,-1.87450089669781
"AACAACCCAGAGAATT-1",-6.83685018289614,-3.47970131521198,2.34732678237427,2.72716955281806,8.42937421345963,-2.9490570098633,-0.358075516074039,-4.17402352031821,1.16947040009715,5.36042099947356,1.96084565337845,-0.621236973897599,-1.4475473012943,-0.0137760616391217,-1.06680815842017,-0.168141976844833,1.66079882516065,1.96889678600729,-1.19727500645125,2.73767007070991,-0.703657188490907,0.930809391265575,0.704338609737665,-4.78613722386768,-2.43458184827324,0.505189210512843,-1.51839979957852,-2.41890677981887,1.90015728916554,2.10353519131523,0.250864915283343,0.8368046892494,0.360393117855835,0.115108089308071,1.63471362524654,0.0360145177589114,-3.46794322459854,1.12044561664027,1.22239183341126,1.46471227573076,0.954219420746443,-0.268255488133924,3.4076099635651,0.425016671026632,-0.344488212720833,-0.331693556621481,-0.961008770813942,1.08868361701395,-1.24244072411761,-0.779549598580849
"AACAACCCAGCGGTCT-1",-2.74268663396144,-0.906500087420099,-2.77031930981687,11.795815123845,-0.942650115691714,-1.39048779980945,-0.627075369592468,-7.85896145346281,3.89900468961962,-2.32731963349411,1.28302040279722,-0.211552034174896,-1.66098658728799,1.68523826571803,4.26906241472193,0.654518349255478,-1.48661341910904,3.3721649881691,-3.79781181071878,-1.80556154601204,2.31028822059606,-0.637941583228755,3.04140099450608,3.56654795665142,-0.691206136421568,0.652775931377665,-2.39685617503498,-1.80954336401327,-1.65922075748337,0.764316698744575,1.0068536472258,-0.386444318063056,-4.47161242912882,-3.53381951667917,0.00836778794431946,2.19881839798015,1.91785045276686,-1.84621440067856,-0.398372720663823,-0.280203016702643,-0.960080868783836,-1.65296630343426,0.700754749034614,0.76584909818969,0.41614451916631,0.0627865235856343,-3.21240013569462,-3.01495633417012,-0.4575618410513,2.52087158222909
"AACAACCGTAGACGTG-1",1.08267032853143,8.05469415220661,-5.23884536176053,-8.31805677727898,-0.820269056393773,0.276811686979789,6.54419616610215,-4.57060185551112,0.0504110788856392,0.612389403224523,0.449972211613135,1.92754384405969,2.95446519909576,-0.159536779020159,-0.305056683710831,-1.59727476886845,1.83370479290159,1.79925413801487,-0.318497420102698,-0.721609660115261,-0.778623891451778,-1.08094300448943,0.169730956925711,-0.936960071015927,-0.0574785379355792,-2.1069262852311,-2.54771039655016,-0.516331538292128,0.711575879350572,1.09551356559884,1.73094307727122,-3.13254388651952,-0.268328323647774,2.2996330759779,-0.422550709597069,1.71623343609008,-1.05389325341164,-0.116318379286622,1.36455134769903,-0.942465353888672,0.96761182016314,-0.784378160403528,-2.11622971061917,1.00352681027001,-0.644689205946513,-2.07093141787214,3.49438797379293,2.06332941552155,-0.0631119520772797,1.25597031384534
"AACAACCGTTTGATCG-1",-6.27927590826785,3.06825656051526,-1.62957621126043,0.368384987844656,-2.46070615558825,-2.36203467790061,-2.80477241175707,0.874780586992769,-0.900297176163266,1.76908035462106,0.0208938907995155,3.79103369773385,-5.54734570734193,3.75492113091087,-0.826317177349318,-1.09420405117909,-2.43771439303734,-1.19009906869926,-1.1414642473948,-3.16339422781863,0.730245131754654,-0.112793759724957,-1.23505124047975,-0.771129918663498,-1.44791979357176,2.02688972759227,0.702014002393509,-0.114817926053383,1.75437309048536,0.271978603695833,0.410316374004668,1.99026125605652,1.94251266508891,-1.58330682227696,0.212558576089569,0.558964053991317,-0.110218234580486,1.80996515951647,-0.422812985734089,-1.15404122990624,-0.11612359353102,-0.853134257087205,-0.664503756059048,1.95950092189841,-0.0397365871302118,-0.0835228730009226,0.264165051881318,-0.149621855741201,0.525194754723066,0.178346158946887
"AACAAGACAACTGATC-1",-11.996182060059,-9.8308165192721,4.26087348360426,-2.85950675033876,6.38520449807807,-0.524770746625797,4.31485576930708,5.53956829363634,-1.28235996099329,2.34299808880025,-5.4770665599622,1.0357900776644,6.53602614159771,8.21181772952085,0.834519771691633,-0.457906050074747,4.44705407755411,-1.86831388243535,-4.11159798714804,-3.58291122969811,-1.90478180759244,-3.52445207744838,0.992374829396999,1.18329246864381,-2.88384717222157,2.50541843181953,-0.108316771128986,-1.09123453880253,1.20058509529229,-0.685741652516639,-1.59385777774744,1.39897364315125,-4.09288146738641,1.43963214386137,0.264266711600859,-2.48665584296419,-1.64679314451741,1.10149310706049,-1.51743258147379,0.0170345228701388,-1.31424835357897,1.02918701157428,1.82403677447768,-1.52569353819238,4.19254845917827,1.79988769169487,0.556746496479248,-0.463966124831862,-0.896475647792377,-1.76811870495994
"AACAAGACACGACAGA-1",8.20329017732278,-9.48582072735145,-6.3227074841053,-1.82550305288644,-1.6156325410811,-1.62631060933663,-0.26118410555962,-0.474452763401211,-2.34658017928578,3.73228477111845,-5.57133524930779,2.13611945417306,5.19713159239455,2.09940282756603,0.368164889904641,1.41525026126094,1.56493978785157,4.18894708416696,1.06395303948866,2.5234019543727,-0.872142077490919,1.723131816073,3.84437692337472,1.85879359347146,1.36443278633481,-4.65255808942672,-0.440307817843816,0.202221694573857,-0.837145713102856,1.5844014139898,1.43925662457267,-2.88077262857252,0.26237715691467,-2.22664019985017,1.01456686104496,-3.64872351794401,-0.515162649582614,-2.04357253416407,0.709716025373166,0.9437539347293,0.457790677501224,0.275565175179024,-2.59923671186882,-2.09317336334636,-0.884157750789952,-1.19156289606158,-1.95185110650122,-1.97106010315591,0.205327819866895,2.52632233822437
"AACACACAGTCAGAGC-1",-6.93754682222476,6.68473234124898,6.44005196760768,-4.96898359348315,3.89608908707268,-0.852094005522637,-0.961738712955846,-1.24701939684839,-1.78186179612786,0.856332121489844,-3.49666724425881,-1.27689006165575,-0.730310242961685,1.19385522084188,0.966300437610456,-0.0533844564475895,0.742914937157965,2.22906346730094,1.35060712040763,0.758762494392892,-2.1733141768008,-0.617777143043427,-2.70736074847776,0.403958359733623,0.143408182505429,-1.81398772955189,-0.0593922347331398,1.08324507693727,-1.39576355586839,-0.84436358817986,-0.561365426104838,2.6562829916732,-0.824844113384961,-0.642512590061163,-1.62443751679094,-1.35895798415562,-0.0548283877852673,-1.01497786267385,1.21282317935226,0.828637911717311,-0.5755710594842,0.00134002216748269,1.14947253049151,-1.47217379994334,-0.841472584477996,0.335861829027321,-0.199614242680172,0.532039821589169,1.43590496406206,1.88121634551365
"AACACACCAAAGGGTC-1",-5.86221829661992,-4.01218280455878,2.8965100574642,2.58744120652559,5.63384154525281,2.95516439116616,-1.67124296580984,6.13329919858194,3.87490853495839,0.842674827633609,-9.39097005711647,-1.44192516620779,-3.47569515242212,0.185851004736877,4.67565445060614,5.09879832229631,0.0605937999539961,0.805640998326322,-1.0937672775697,-1.94844960281988,-0.744015954419892,3.26083215914409,-1.3936172249209,2.39447944640175,0.918338976483332,2.06332153536571,0.498639684918263,-0.31685000474993,1.00671952735174,-0.383760661236743,-1.95953170589988,-1.9519416760336,1.46076318651303,2.47534398164934,-2.82462959743675,-0.50246409683299,0.562328080862619,-1.22174933404068,1.17730960346647,-1.35196582229319,0.601922085463774,1.29492936786695,-1.96837942678493,-0.811361726431975,-1.93821490411169,-0.106167934971687,-1.48497678456788,0.452287032657498,2.44783485645526,0.698829244717131
"AACACACCAAGAGTTA-1",2.92783803157427,6.5112079552354,-8.40881373158882,-3.13663430575372,-2.71452061692742,-0.820878271218213,0.542825988185519,4.1770570144844,-2.30835796563194,-0.496665485081947,-0.0510586630380405,0.575168662168436,-1.63950506896783,1.67815076400979,-0.427080188698903,-2.21964744210032,1.61747474444765,0.628858678925923,-1.16076606641728,1.33908156135274,0.20702704641912,-0.916134165808195,0.878466608245181,-1.81686319977686,0.296171971041321,-2.0008767340849,-0.458828840609665,1.18387163126686,-2.84638578728135,-1.34095226366405,-0.0191315093256978,-1.82254257419784,1.38313786968404,1.56482815082544,-1.11984649901513,0.21587544975603,-0.237111706110372,-0.640465213565892,1.3123273274026,-0.664361392379352,-0.761651302791071,1.77780049959607,0.249036880288741,-1.27060419841325,0.122002461353916,1.45109998961922,-1.16509822482442,-2.02199009195196,-1.22780874944632,-1.84404911991665
"AACACACTCGATGCTA-1",-3.67810428864161,-1.49520264479967,-4.41166724044956,-1.41903520437212,-6.61597592077406,4.30427979918361,0.0749733676417145,2.76430380006785,1.62985329690646,3.85380222051498,-0.0700935908281127,-0.893750479374507,0.285092138653029,0.042454440510094,-1.02405585010898,-3.18815784501762,-2.3018937069308,-1.08137154683601,1.11037911808111,2.46031479433725,-0.723337080917582,-0.983189954260197,0.49435623311307,-2.81305869011804,-2.7118838107433,-1.0765201748442,-1.52299441124111,1.28573761358353,-1.29690551202925,-0.818813202793372,0.759027529900567,1.76490807147588,0.404505784264188,-0.980378138449771,-1.42421411469258,-0.0632374429017278,-0.116550364917444,0.228338622126242,0.774585829142879,-0.380255935007437,1.45549111425425,0.406125718035913,-0.358506614898933,-1.68882234200747,-1.40280008754362,-1.95769784054342,0.784100277870099,-2.24301988066991,1.74539500951559,-1.47622774073273
"AACAGGGAGACGACGT-1",8.14748145984935,3.17503271351246,6.48984134644835,1.47377491881311,-6.02946187716833,3.7868715074893,0.822559486786718,3.19327525768072,-0.685193793387746,-2.27716872733946,5.49459555549444,3.17090862108947,0.940097562314138,-2.58612554516499,3.13003936411324,0.568177146382678,-1.37072595632576,1.79881669979207,-2.5420340776705,-0.0335576335177296,-0.98373724281739,0.920551455677383,-0.0603166052218203,-1.20568699328417,0.549689587666136,1.83707696446668,-0.213809567305496,-1.50214234651482,-1.02982574887375,-0.953874241570361,0.924125700031209,-2.55031140915848,-2.41721476040002,2.09780702378128,-0.500827355214618,-2.93877530856327,1.2478213722526,-0.621513925016488,-0.982126007525991,-0.555274592724412,-0.278871625996682,-0.234337048760274,1.37915823505666,0.943143741295774,-0.0508586508414429,0.612786111975774,1.23058449728875,1.36736824332158,-0.043535909573288,1.16305804663208
"AACAGGGAGGATCACG-1",6.86302409265194,5.25993331690507,2.15346226494373,2.487485275642,4.3595813588375,-5.22833954542512,-3.00614312633921,-2.18061291504567,-0.514905728507583,-5.85769913134562,2.83343210581954,-1.19425339039981,2.82662411480017,1.50931410028984,-1.04930364140001,0.44716262890807,-2.88708244827011,2.03492093018277,3.68834335127499,3.58984256045676,2.34563184628962,0.667044507959873,-0.00558429314331438,-3.85174054425185,0.821529072652913,0.310947986110934,0.569068513010389,-2.125555074007,-0.345727292417009,-2.99146860468791,-2.29507580797764,-0.847970862680156,1.5727534386647,-0.625723176060169,-1.08023376672619,0.444830828835728,-3.09127481038614,1.45126439376606,1.96716880630146,1.74241310188663,-0.449071295394236,-0.282013822456209,-1.75807094357178,-1.86997004734689,0.824913564794969,-1.32881273825612,1.71272436517779,-0.284497649753146,-0.672640906594162,-1.86530597978091
"AACAGGGAGTTCGCAT-1",7.98147044923278,-7.00774770119238,-5.5824952101404,0.1118594477659,0.950318422391246,-0.646265238856569,-1.93709200119301,-0.885747801458119,-1.15865379771371,5.5407124806684,-0.0930965106095376,0.203022491518731,-3.63608176538347,-2.19070994343455,-9.44502672498742,1.75351393983069,-1.76189358435914,-2.7773479532625,2.86260606568975,0.820614405838418,2.50079851977596,0.107282116387461,1.20819284349035,-1.0405167509506,0.318505829963704,0.359939380589667,-1.19132038866057,-1.3758149008326,-2.55973399177419,-0.932260150043882,-1.67680500566504,0.750978662330981,2.29627314855464,-1.39814251673092,-0.401996488801416,0.106277777567992,2.13972007193101,-1.5490353149305,2.12178237128444,0.18040068396624,-1.43696116545536,-0.186178133555378,-1.62885304059342,0.0917012530004703,-0.459142949275131,-0.412330566629158,0.915827011776595,1.50537254160335,0.672098277785341,1.64795316556344
"AACAGGGGTGGTGATG-1",1.37834214383346,1.82924804725593,-6.19512784125444,0.390546319756302,-1.82879234787644,1.19217348379859,1.82291855040076,7.59183001903437,1.33384084179194,1.18243323577369,2.27464617174604,-1.29428543250069,-0.757752456329211,0.356044468463998,-0.329312805942341,2.7305455303642,-1.31765350628919,3.30441579325711,-0.903610752248211,-1.53080684788165,-4.78298406485448,-1.96376282253655,-0.830228456731263,-1.7661080821407,1.99716050135348,-2.87530992182928,1.64180293745687,-0.490583707813349,-2.24471712693656,-0.38242840598855,2.09742400021494,-3.21890748709098,-0.879162419130343,0.405012782914064,0.230365702926189,0.148319748628377,-0.908757491433814,-3.76936673340098,-0.565541626843582,0.888673938044225,-0.32642089175392,0.557309218820092,-2.44002079950808,0.758113454833987,3.25837873859833,-0.491809365603738,1.54135742682118,0.221821197874111,0.773390950195692,1.55686627097306
"AACAGGGTCTGTAACG-1",-2.45148891174973,1.71842182419568,3.84002916539249,0.502408421694298,-1.03487811903558,-1.75424454394851,-2.00130455558401,0.670536333744298,-2.42176557699204,-1.61221920382602,-0.130980712247245,3.24353072303878,-0.296939499291111,-2.40600863697783,0.795470790319257,-0.0913503160915677,0.733073773691137,-0.596152668101218,0.683562345292505,0.157663058875139,-0.760252613472602,-0.543897700034457,1.33163697158359,2.21335044328522,-0.964807558943747,-0.523571145067888,2.56493646226321,0.0347721364806644,1.62537996148216,-1.2125829720959,0.0589064158303721,1.13184381658536,-1.9455446577129,-2.81200734824103,0.196938385808242,0.0199248082453466,-0.729207282964869,1.56499185943715,0.81170696180694,-0.21163099796445,-1.50969526258466,-0.196478740275809,0.0502595378334427,1.66738921200352,2.12025365015231,-4.50084884648853,-0.70472087517096,-0.61002963665307,-4.68497234248542,-3.00362861273622
"AACCACAGTCAACATC-1",-0.432166097091616,-0.881131879238526,1.51299204629561,-0.926208301633103,-4.58213524653587,1.08267917339662,-5.49356673334361,1.56871234696188,-1.14577074789163,-4.61628124521818,-0.62460416196718,-0.374959713105623,-0.918341795829919,-1.79643794823572,-0.859079340071729,2.17744014915126,-0.533261987839054,0.32275639023318,0.453950296296488,1.78015831948852,1.35090100500451,-0.0760964368483841,3.29986116893508,0.749998512192908,0.120815896241254,-0.627044542822461,0.520635882827156,0.269415639469511,3.0083354927293,1.24907313583579,-0.643935112147798,0.1738500968459,-0.725267657071017,-1.35112230807411,-2.09904598557215,-2.13951230094877,3.19198640064939,1.51815090388578,2.02271179624322,0.663450064505146,1.05235116012497,1.25122257321153,-1.58802403978258,1.43709964403107,0.050391881609438,-0.253870600258676,-0.737404097673502,2.24187809749481,1.00199991074714,0.601724012540724
"AACCACAGTGTGTGTT-1",-0.803495295869995,0.0516639583506277,2.30055526371375,-6.12755135189969,2.22659442203372,-5.71560013607641,-5.38007943949097,-0.629957129986701,-4.38344030732293,-1.31957519332751,0.052982593283947,3.34034399762542,2.29118759662947,0.774194659433327,3.13631746237042,-2.76132963793892,2.36777947865135,0.210004885847509,-1.2720626899474,0.859133602047226,-2.51194837656458,1.41512750110299,2.65242649480523,1.41151575100854,-2.98040200745004,1.37803045659538,0.247076324099331,0.840651259961732,-1.16951040210231,-0.804914919328123,0.487832199567707,0.214779778280049,-2.27937003490863,-2.21603774786396,-1.49640835802507,0.934613062577494,-0.970679000463186,-0.682299671857381,-1.2649559656671,0.175935398976337,-1.28919347334994,0.333872457647334,0.248777300022372,-0.970295000420835,1.83751933492287,-0.495974686837163,1.37436753704003,1.39580597980601,1.20084514514777,-1.04054393487618
"AACCACATCACAAGGG-1",-0.682364850363715,-1.47685486718316,6.42650246122365,-5.31030914932728,2.82927389845796,-6.16099705320936,1.88387165680644,2.81356192920923,-4.53574433596511,-9.64136767577356,4.81659397519166,0.948150474985446,-4.10580896200948,-1.98197229871508,0.112078094518722,3.60828450182306,-5.5097258105267,0.0406605720945792,5.0056416800221,1.36942759401451,0.118372950016042,4.91918647923119,0.628719820714212,-1.11162628469199,1.64931282517053,0.65253701567391,-1.309373359179,-0.0975953621763868,1.4918489026239,-4.22991056236507,2.17812649213961,-3.61241041848495,0.479125251563493,1.93790836203471,-3.81267310363493,0.592806218385565,0.905767598182467,-0.141913128467652,2.40760414571095,-0.0750548014716738,-3.97527075617468,-0.575061520998833,-2.19316732054414,-2.51555785726358,1.8193615991906,-0.797729368396081,-2.58332348078116,0.750972317232246,0.895189491483862,0.0869638453901843
"AACCACATCAGGACAG-1",-12.8452536909551,-5.31649292662794,5.96825832469312,-1.36668296278809,-0.756404017269583,-1.23098089817977,-3.65797400073913,2.27712275005641,-5.55034200997313,0.541715086758042,-3.41341165555253,-2.90701312350573,8.69362144090507,-1.21027674024748,2.50678413276813,0.031409564133087,-1.17158239368469,-4.31488952332296,0.129609016666832,1.82900937321442,2.14141772924849,-3.09991064699587,0.481316218860793,1.00019676246278,-0.278151670726115,0.246815899926168,-0.304933502304466,1.65903939632462,-2.28111501764027,1.6248639725042,-2.07098671053657,-1.62795542724603,-3.98452716208605,2.50341882675561,1.8307934766416,-0.334205913501791,-0.363573663120327,2.28148330440853,-3.53876344700423,-0.808328131290769,-0.554386903512383,1.54761628294493,-0.656793528472423,-0.812382392595512,-1.34794234375493,-0.3629850664209,-2.08218656417783,0.764804965869315,1.0897867885655,0.393567834449458
"AACCATGAGTGGAATT-1",-2.9875345186822,-0.503538456199558,-0.0881619562824858,-2.14075567644381,-1.62570638674195,-6.02031168954754,-5.3768444912344,2.7605126359392,-2.27734009771635,1.17181895938674,2.36645954335684,-0.33611316581507,2.91232674143773,-0.828487978883225,2.52584536595868,-0.461850643360161,0.0762475547677215,-0.0423978544084585,-3.14731175863664,-0.748616262743275,-0.974658459504855,1.65248863883817,-0.655048832064335,-4.11600797422645,0.601870895618238,-0.0577189051498855,-1.88148400835666,-1.49472397773032,-0.52502178652123,-0.144647869145159,-0.114704388361172,0.485763779026449,1.83392121762864,-0.333908595042695,-1.20469142980479,0.0988119411380424,-1.24480944022666,1.41632633598775,0.313513522954459,0.478585014004136,-0.100939334504152,1.50674238355197,0.778744583407716,2.06024950040398,1.09456111199561,-1.44238534279928,1.12904151854397,1.74229878834952,0.195243427015777,-0.338164698537294
"AACCATGGTACACGCC-1",-1.39749618359816,1.4504008598421,5.64625613951678,-1.16302388339928,-4.76156309925069,5.57196366607938,-2.86313560187437,-1.17172048243598,1.7524930388059,0.0893413750177324,-3.51471096888337,-2.05301354453496,-2.24953364539846,2.1197476514587,-1.14310602074298,-2.48923341400451,7.90510332019302,-0.596695312426416,2.05251048886891,3.46659926653582,3.99222988519639,-4.65355162345745,0.416348856991115,-9.66183675141873,-0.81999706588296,-2.57259436089149,1.61695342091289,-2.95988193588895,-2.31122737415573,-5.03242606056749,-1.33435273333414,0.145958777196529,-0.946371703722917,1.34385262754097,-1.22401787244345,-1.12398883091557,-0.905021769847597,-4.40642683201444,2.17457267825156,-1.45900099351548,-1.15912159508679,-0.231903055170194,-0.278933266903699,5.28527624604149,2.44601841012199,-0.177967942345781,-1.49515824568635,2.91408099570351,0.607372058887841,-3.25860848003318
"AACCATGTCGTCGGGT-1",5.0065005852632,12.7025283779412,3.01703874101056,-1.50278667343799,-1.94833125581839,0.957871973351107,-4.19973977879908,-2.6777688366134,-1.8478666153004,-0.3504447106935,-2.03796963443999,-2.57033295742223,-0.0778502216587603,-0.47028718060748,-0.0732469179144578,2.09539568548596,-2.69421665661115,-1.69710465399701,-2.16572445772668,2.83785356505854,-0.743895737039168,-0.586891732061088,-1.14651079676598,-0.458299688068248,-0.737124936096993,-3.04874919382346,-1.50781521898806,2.50023440037959,2.58369053124275,-1.90726179385501,-1.87593984092267,3.35637373714965,-1.9254912955979,-1.26777807936146,-0.525317508221685,-0.927283859422493,-0.640569971264381,0.400444294247859,0.712756396793913,0.761754402214233,-0.774212366653048,1.80557897316024,3.51008425654195,-1.47857119241547,0.279069131607995,-0.303164850901383,0.651937045173616,0.837480692624365,1.80479295644069,-0.879880928808503
"AACCCAAAGCAATTAG-1",-0.317047510050965,-4.93701051206445,0.855352126841438,5.27942612745912,4.31905260407972,3.60136123757591,0.217721518364729,0.350144476812583,-1.04901328941472,3.0160357955337,-2.55186184916619,0.334565895902819,-3.38961554984695,-3.03973365226004,-4.80319405739699,0.677966908238147,-2.29493926491153,-0.201665281771532,0.558412458394394,0.592635003425065,-1.38337535717175,-1.52598384599244,-2.59687398729618,-2.75999143424483,-0.891164811326794,-0.547815988657683,-3.60312222298216,0.790910125294274,-0.921334815339287,-0.961913074310168,2.29359434091697,-1.68379230781191,1.75273231331682,-1.50461631472176,2.21760409959446,-0.817127004651161,1.46473391890601,0.193134685737547,-4.14935070664809,0.359672856712079,1.0266692059927,-2.20358393797879,-0.21409598757677,0.782632895288912,3.35128139749111,3.5307087381603,-3.48890029448267,-1.63009117730654,-2.33995853782317,-0.640317061852741
"AACCCAAAGCAATTCC-1",-6.24954306242341,-2.38759154860411,2.93597327445838,1.37895049883041,5.92149273552302,1.69424695134916,-1.5687160125535,-0.616024711653322,0.39259806798524,3.80279287173086,3.15376131075859,0.457392134056023,-2.34359791390841,-2.93240426753784,0.989232599450494,-0.353801374450868,2.01825698421623,0.7379875940151,-0.621356747199155,5.04799123182912,1.30725673836837,-0.362813664765404,2.2292405525931,0.226694331648429,-0.618312642547145,0.0932703690111636,1.8656158646731,-2.07340074932326,-1.13059371131442,1.89611960143523,-0.542317612151158,0.119470332308096,-5.46136116119372,0.855174991358675,-0.969877187865449,0.0371522092819527,0.255966866624347,1.39622400688822,0.308071140149811,1.04922530436071,-1.22190829437433,-1.26063263797401,0.069138794832257,-0.869488752616029,-2.60229324256021,-0.724616666876563,1.16685337546273,0.337564559495424,1.32819961767891,1.78600798458655
"AACCCAAAGTCGAATA-1",6.2275403530693,0.730721160613991,-0.703417984054297,2.1929734482288,-3.89747109074154,4.30531852201171,-4.43198147382538,-4.83528447706435,0.600568370877751,3.02705961733818,2.35297324143583,0.426441039984996,-0.764633816837395,0.722195782197425,1.42752455112032,-1.24692434679099,0.921967257335476,-1.45741302527024,4.56167286449426,0.0890813502192147,1.20099275563833,-4.81486142371733,4.85361362817498,-3.53134602525043,-0.50225348062327,0.929977465889855,-0.313575480006346,-1.21713197260593,0.0152939415660289,-1.29127511983135,1.32861433847269,0.0596054002447778,1.251534840475,1.45085841011265,-1.19127294723655,-2.44579667388614,-2.53296701447588,-2.68020028163316,0.783060301904353,-2.98366339721925,0.768636056952571,-1.53518527955972,0.901102461975209,-1.0142139742053,1.97428159864495,-1.23103903285344,0.152072064850848,1.13309592934093,1.85726948795799,0.920965705283967
"AACCCAACACACCTAA-1",-7.07223294470135,-5.8931969566818,-2.92089617320211,0.447224122052312,0.398720351043851,2.72544670735855,5.94436825364639,-4.24581312172697,-3.87569311551994,2.07071958444955,-1.53501619820768,1.81977051300327,-8.11313711281608,0.131852125065234,0.184588171208938,-0.12954753948357,-2.61741343002147,-1.51229666140042,0.899321400831621,1.97489482153562,2.45136186572213,2.076322434738,-0.580681156645985,1.90602961841186,0.373954485412622,2.24174427276201,2.83554376141606,-0.453504085424338,0.644850471424218,-2.38025161586452,-1.71624649703369,-2.01619550924587,-0.261391391745884,-0.114224374341256,-2.30843527500806,0.750393983493192,-1.7791810376402,-2.77850768054043,-1.59532512374561,0.671354257489371,3.79624336632945,-2.38223914921068,-1.2809477323795,-2.44402680647038,-2.54856314931923,-2.00883685374758,0.29723885271417,0.393546774589639,-2.69804839534741,-0.54648735864925
"AACCCAACAGCTACAT-1",-5.82479400868424,-3.80207037046891,0.36536954902092,-3.99337191700815,-2.76294674288323,-5.05167445200549,-3.29755559922679,-2.09515358484931,1.97261199664243,-1.06315934735593,0.662692794022225,2.71402043176218,2.41646987174337,-0.330704121948623,2.07741767062875,0.000424047982527223,3.80367973208913,0.695554989596319,0.242776669555756,-4.17995924679382,-2.31482720159633,0.577823001005466,0.40285326341678,-0.955731830319976,-0.939323583244419,-0.146569588487267,-0.865289495072941,-1.5926261333226,3.75004725028076,0.291035747177535,0.957168243586225,3.71844193030333,-2.88036854829027,-1.60321846977755,0.691373466266099,0.744605845187553,1.33534876613522,0.638875766818969,0.671954269128296,1.14424321204921,-0.276855893688019,0.792019961040818,0.49879073007811,-1.96582181029081,-4.31822275734152,1.15438705248799,1.6586390295497,1.68675775665937,-2.26982867796165,1.15671275501657
"AACCCAACATCATGAC-1",-8.79601399383733,0.229701702029512,7.49241274237509,2.71638143586716,7.81947535314767,3.31495934831288,4.90560652713611,-2.07809550122371,-0.130288009039538,0.38084373617573,-3.11685131695393,4.33461935310638,-7.27740531795279,-1.48143649387095,1.39683962833442,0.8769226983347,5.2077859721516,-3.90705384372628,-0.688624510013443,1.48494731203771,-2.00825534153833,-1.5328869793879,7.19718199022718,2.44453276495563,-2.27335437368579,-1.59728848726642,0.818270247988394,0.123022650204203,0.0530361819701212,4.23816892713557,0.768423850530218,3.70601997584484,-0.944903223676505,-0.90554476485961,-1.00682778190638,-1.02647121363793,-0.849379053667789,0.636783644487889,6.4138812844375,0.177367446367604,-1.78291103475729,1.0741777001663,3.0155702664336,-0.28972343672107,-0.118070239290627,1.33426913096011,3.36152069876078,-3.16815469340455,2.11946892751886,3.16299481191484
"AACCCAAGTGATTGGG-1",-3.5253919714142,4.91670053657681,-3.40968623931993,-0.384227915463567,-4.96095859466047,-1.40264099905734,-2.70464321217359,2.47795375130233,-2.49805101734764,2.0343935206268,-0.740804134207417,-1.71516998620697,-0.702331584715388,1.33085043428448,-2.5106395709112,-1.69319773830468,3.73813183411733,1.04301572992299,-2.23300028100033,2.30805101606701,-1.07050520260326,-4.63522000698733,1.57715191459656,-0.781721938084056,-2.5944146459128,4.09869553957056,-0.0647280216210694,-2.37013924283984,-2.06459240582282,0.221755477065951,1.04606425269097,-1.61132542940078,-0.276171510723148,-2.77634807754308,0.671518227454759,-1.37011460531963,-0.497053624203845,1.21422618211673,-0.545954618528973,-2.36958132768472,-2.40160024363733,-2.22187742043568,0.123240352137166,-0.579924450121097,0.410131124338604,1.6804113134163,-1.66659672003146,-0.23216690878949,-2.30245467226877,-0.744058170084436
"AACCTGAAGATCACTC-1",-12.0401654984851,2.84402938889863,15.7514110889532,1.4676192995062,13.6337438476318,2.07963405706466,5.60546020185227,0.293220041584711,-0.655440419321188,1.24988226443719,-5.78772112050855,0.894615282786973,-8.68891566029699,6.03453240078319,2.97144873132692,0.652810199002814,0.478802186944117,-1.37083103286823,-0.598337754851835,2.19212086003357,-4.27437651107391,-4.87893587928689,6.64499108089545,0.677306216708696,1.63477399297989,-2.24243968812431,-1.24137839554428,-6.61798624072569,-0.839735928874981,3.83774432956034,-2.9407911414031,8.93975783749113,0.930586331644687,5.0163894688829,1.73913237953203,-0.267331154617221,2.97934367788579,0.38336478661508,5.67998697691538,2.80290232839162,1.51960816440514,-2.74673758768379,-1.04325600908288,0.344474175149571,5.37788986733331,4.07951773485823,3.53496451458049,-1.61867727120627,-1.27270637340867,-1.68169033364351
"AACCTGAAGTGTTGAA-1",27.7944904422133,-4.4519247445319,14.8245463098012,-5.40353827318444,-5.76852871739678,-8.93544480840348,4.81778028221162,3.03887050438113,3.92262161611834,2.99251248426524,-1.21488403593242,1.65535072088588,-5.89110587138916,-0.237336850035988,0.554825833728188,1.46337555120676,-2.63543140721768,-2.08356295917158,-0.966333067163705,-2.52906716385746,-3.22544229152596,0.127225201203936,-5.73929517516162,0.699964662188558,1.69885843514818,1.7721448691774,0.893899076563888,0.0686041308776943,1.95217730697188,1.70076447076445,0.360085527199267,0.0581822895725356,-4.22172538822823,-1.15219771446113,0.146807582710106,0.9974954325155,-2.55498362168205,-1.01310344457231,-3.90470253301333,-4.19240256934404,-2.46654395594302,-4.29216112651019,-1.84684752401042,0.183195327203024,-3.2752151787185,1.69703111758684,1.41102526047343,-0.0252321411311077,-2.72904146619583,3.57697881115954
"AACCTGACATCGCCTT-1",3.10427315052722,-10.966677560212,5.71443365830447,7.68700179534533,-7.30304217418585,8.38081323284404,5.68197264773867,-2.29225805160351,-4.72068757721845,-1.81435420531208,3.20326258058972,2.51308307485418,2.25972133991627,-4.68798542250847,3.23097446586587,3.12834668929248,1.07492452877151,3.10957252896285,7.98120278486013,-4.48510293487361,4.03274136643507,-3.87016679156732,-2.08409561294938,1.56403395681861,-0.322279273944612,-1.58825297843878,-3.56399912826789,-0.0654675315063921,3.67859402106282,-1.24327600859424,2.60655531299434,4.87505166175589,-1.5163950250704,-5.16650375096089,1.01672132703269,2.68453882168335,4.1579238197988,-1.40841732850667,5.77212874631727,2.2012919324666,1.18599830555298,-3.18368853627408,-1.3997213893652,-3.7544464861641,2.24251797123175,0.945304761177559,-5.76450749329779,1.5752440668384,-0.213895468585353,-0.727220327272277
"AACCTGAGTACAGGTG-1",-1.67976764494142,1.73570158490923,-8.06275473158183,-1.74988783720694,-3.13164609077448,-1.9371477385414,2.56442138838219,0.830105910697121,-0.00319402393545588,-0.355139271268806,7.80015818808094,-0.322069248544038,0.713798831821716,-2.34037590988058,3.10126517632305,0.869487553288438,1.33213538348134,4.91689641154644,4.51948906846421,-3.6786920576431,-0.154763399015868,-0.672473598650745,-2.49929398406282,2.70533917398802,-0.120770829690028,-2.1419410259627,-2.81580189415078,-2.15206639663979,2.65587932054885,-1.16229103297245,1.22206666382937,1.19626406405715,-1.50173858551627,1.67415534394792,-2.01778009186162,0.2610464113044,-1.13775599350925,-1.52826563667849,-0.188126546244086,3.18682393962364,4.12267134586607,0.0449469443611606,-2.57041172939653,0.677974414878167,0.853745001887808,-0.736223799602663,1.45792286363254,-1.24772326072479,-0.850556043080769,0.705131533952419
"AACCTGAGTTGAAGTA-1",3.50978731864732,-1.81599330196155,8.11446132109034,-4.1019093234017,-3.83439762805541,6.35911718232167,-5.9080302311269,2.70470811617894,1.74786534838886,-1.04208277822797,-1.66307648579301,-6.00896889196516,2.0396175215369,3.04318352398035,-4.78006631130862,0.516433835252103,1.68555300700393,-2.98103216564173,2.51581739499313,0.669247790637251,-2.78571330560571,-3.97259464916662,-0.347136561532098,0.548645434000559,0.857592876036001,1.00220212811942,1.09939107879637,-1.82152846143746,1.67871726231789,2.00386464178902,1.25329135910421,-0.210547868963569,0.261618148693765,-0.810191765476929,0.425595844681683,-0.801896006491113,-1.21038538011566,1.72695551512525,0.121737616012698,-1.01663901018426,-0.649259508518747,0.989352533207966,-1.50711564607631,0.0992651097814491,-0.702012511398372,-1.65405030169558,-1.50040763461701,-0.830408066825771,-2.20027854503124,2.21375580965026
"AACCTGAGTTGACTAC-1",-5.05589721387204,6.76905567139838,5.13944430310961,-1.11602186933951,2.19100509026295,1.21951265823484,0.0275535429191306,-1.82718719425989,-2.5646832624671,3.77478238811749,0.343453176904984,-2.52588049456991,-1.4095458716885,-3.74196417365421,0.739925475301714,1.64497081807579,0.656389232016627,3.65316623241205,-1.38803543654381,-4.791542190831,-1.94847758800271,1.67575742832877,1.07958587892579,-0.446056790643512,-0.665150727612524,2.73684174177369,1.94647182022987,-0.823675888775416,-1.716181137728,-0.809607265304465,0.124176307390865,0.524984092171167,-2.53648261922004,-0.478619734556065,-1.23012097854772,-0.801121961064251,-0.164450570862572,2.43760626190366,-0.0883183143691969,-1.05268966008487,-1.15486907101528,-0.213310398921837,1.56367872056397,-0.199439551877246,-0.877741586904627,-0.0854650139658206,-1.47022257732113,-0.203888431348662,2.24343115307732,0.921533669742114
"AACCTGATCAAATGCC-1",-8.94357871264314,-5.84800512879734,11.1172872554876,-1.04640454134288,11.6162563159566,-1.68693625235107,9.07683387721737,3.60278352992112,-3.17043005402147,-7.29278476736975,-3.06488751272653,-4.64887403605513,-7.15896372780065,4.9346147556637,0.702118066813423,-3.06485069255507,0.728850491517693,-4.29701727583701,-2.54713364436198,-0.117041538679185,-2.38294368082879,0.0941152104847197,2.72430711334053,-0.927019819117188,-0.994768505366612,0.184305324298586,0.301572715861005,-3.49037795329972,5.40032773896337,-6.1644769269503,-1.49678203872132,-2.19619208225099,-0.428141525012697,4.15684812771388,4.14132372823948,-0.767614454614659,0.714817317598899,-5.64227331909695e-05,2.8837963802031,-1.64115980779252,-2.5520380970409,3.15399698953625,0.649751863443407,-3.65115064170876,-0.690865580730427,3.86410476663199,-2.44290354902694,-3.04757153203702,2.6840137476444,-2.98413202923879
"AACCTTTCAAAGCAAT-1",1.43644065774627,-1.01680360891164,2.90070286730549,-2.50492752733428,2.72244292887225,5.26428534219456,-6.20910855493944,0.386188183640813,6.56653588033706,0.195839313761859,-3.76012788209608,-2.6093514251442,-0.325038983980327,3.16571951873816,3.6539333620363,1.86380178167216,-0.32375689055251,1.99960339129433,-1.79860762430578,-0.301083770134164,-1.88520653348845,-1.48804849192509,0.207855934906886,3.9599153733323,1.06688257904881,1.38574448967279,-1.40823879192345,-0.135136178154029,-1.0218854585635,-0.0650327412780814,-1.27616626705119,-1.69930301546299,1.32110798126901,-0.119845143971781,-1.76674390905469,0.854924979717923,-2.04404471157349,-1.58567434794676,-0.835915255534605,1.08379302050236,0.93132799048408,0.587962375110933,-0.286442784452741,0.763421376026366,-1.14800702811142,2.30477251293658,-1.09840138453276,4.06433723086184,-2.46698993653142,-1.45841914030116
"AACCTTTCACTTTATC-1",-0.138506606027791,-1.18235856815428,4.4926516725318,4.03265961660818,-0.511568031391989,-3.42415327180673,-2.18256985400923,-5.10556356992074,-2.04590752090888,3.32114824644918,-1.13565574221914,-0.530490628817554,2.94063899796028,5.69065310480318,-5.15613202619978,-1.27617542559396,-0.0357248019174473,1.95367652681056,-3.77105855612465,-0.437385987237867,0.653662200684397,-1.8384492200843,1.3424677314007,0.543719014954578,-4.97368543273302,1.14933408864081,0.472187037307869,2.42877894426198,2.04483938795511,-1.58486696367372,2.9760314397842,0.977768017145369,-2.98254054076529,1.52467952428522,4.39561091419125,0.360722245387355,-1.65697246201992,0.227931448362761,0.807944780857881,3.02707223660925,3.84200372208449,2.99981490845559,2.75931823337852,-2.51743825628104,-0.103902783045669,-0.784176001196133,0.56566953599661,-0.386352951063514,-1.42263362589633,0.841640010534209
"AACCTTTGTCTAGATC-1",-0.114181475212583,3.09137340396365,2.81103815500872,-1.96746688937185,0.638520062356422,4.16470126980459,2.54454297360537,-3.63318065368955,0.917906570569313,1.7041141693554,1.28608604674926,2.45233487209387,2.28454597573166,-2.5993409764352,0.295080146404711,1.11930380158584,1.0739875418954,3.34369352518873,1.92484448405189,2.09546752277215,1.46798109765465,3.40714723575156,1.39283386183312,1.09085201037455,1.66726136870692,-2.06766577299581,0.400253476821338,1.41742146158366,0.221375672691562,0.923464411675546,-0.33501315309541,-0.227054829829037,-1.5312831514532,0.463801310457354,-0.249518724073644,0.0580962415465396,0.64591138355622,-1.92268822097852,-0.546803529178142,1.31479055580599,2.27184132739447,-1.92066502874168,0.259987820371619,-0.988010621281207,-1.42072677480944,0.603506667139092,-0.577587013256051,0.503996243952783,0.311943155708582,1.64388747350147
"AACGAAAAGTAGAGTT-1",2.00804994906556,1.47869123982053,-2.90250296701012,1.19692774966311,0.660398541447563,2.38276597729899,0.498414101241418,1.39329033812691,-1.84209367097788,1.45970739144091,1.10289496450351,-0.654952586104268,-1.18991686159185,0.463101088655893,1.07266931992845,-0.0357351417591604,0.621185641057844,-4.6635616429235,1.62228747351327,-2.0547739246279,4.15497347518215,-1.05841062844082,-4.33935694705901,-2.85526844909374,-1.40483760372068,0.605817609599364,-2.47670280782723,-1.12205484952462,-3.24414491071062,-3.36678269482057,0.718953539523373,-2.11301492974252,0.210019397859927,1.61683950585877,-0.291286315966288,-1.8010608377794,-0.123733999055412,-0.233612292396754,1.58461831077507,0.0532497256721862,-1.37590219525901,-2.51624903673435,-1.24594988750161,-0.496985237858,-1.14867989490526,0.628217701822613,1.04624205276986,-1.23169859273075,1.7436415404937,-2.4329691681662
"AACGAAAGTAGTGCGA-1",13.5676702664075,2.77088958203636,-3.81618904886612,-2.03031819115712,-1.15986872107835,2.33461983226487,4.5868319466303,-0.973205141937244,-5.47507913332724,-2.74931752225999,-7.93285304755769,6.02505554702431,2.03795073631203,6.06711668380318,3.81264212624315,-3.56952729263816,1.47992043538921,2.56533728943687,2.45212829514019,0.175415888660359,0.146301026386926,0.669512419684465,-0.399563579517345,-4.25548574816093,2.10330863664998,-3.73937641390503,2.97001591817198,-2.70814542071164,0.875382850610717,1.67366228889298,-0.318883580089418,1.75465311994742,-1.41905350766578,-0.211935392230067,2.47101328855998,-5.23939977845549,0.326885410238473,1.88318904407271,1.89139425791161,-0.296351947268365,-0.0400540699875345,-2.75697317456422,3.74797370490289,0.196145037905074,0.917704795153834,-1.52197385289952,-2.96558224079987,1.7642304122191,-2.92362731918283,-1.05797979281879
"AACGAAATCGTGTGAT-1",-1.57961292986772,4.76379136498972,-0.535217564854813,-4.21412331235016,5.22246869484294,2.72331406769365,-1.58426130274562,3.18343418277492,2.08977662103215,-1.12616784204085,-1.45416025030742,-2.33350268975748,-0.0134238904441037,3.87961204340724,2.84901406396834,-0.202529571849312,0.675394513638326,4.79637691848287,-0.597944886980514,-0.530996920871021,0.821252786068685,-1.82325387043239,-0.21878658575394,-0.89911859189483,0.47933241501303,3.65780166610256,0.450093209334633,0.0733910247571005,-0.467902506345391,1.96517308881054,-0.856115154358275,1.21446981432972,2.38382203105077,-0.506449946004482,-1.08123800825498,1.76108241560149,-3.34842930017725,-1.43665912982857,-2.22938995997817,2.1069564239987,-0.104609220476093,0.186555294426688,-0.736183976726147,-0.936623263447779,0.131177996397911,1.03897783780216,-0.590839462711563,1.26470350969986,0.629182368137014,1.12164785390768
"AACGAAATCTAGTCAG-1",-4.27104854900416,-1.71940794870783,-5.43036158625161,-6.50959501090742,-0.934624994234708,-0.801647306649475,-2.09177098014023,-0.726161111610639,0.290622964637827,0.356246837844861,1.71731579251251,2.7173946947565,-1.3057654369341,0.366391791317416,3.36758264128892,-0.165655236011342,-0.870859264391987,-2.67986167392193,-2.96752195159615,0.831101650154688,0.475175188278506,2.75378447467802,-0.319862662422666,3.02931575805232,0.924599583230416,-0.948052628539491,-0.268985161457378,0.752096932841993,0.853255981966072,0.162887691079983,-2.70986047469515,0.343637206456632,2.88913136668084,0.469374341747848,1.15098777838695,-0.741989854569022,-0.374908488824206,2.01032469708583,-1.87018050691906,-1.25092325421158,3.55535275845558,1.36458874798323,0.0788157153036531,2.31915288112132,-1.07322759993248,-0.0235357007659375,-0.385659196407542,0.5272657397257,2.53060392665866,-1.05474742673191
"AACGGGAAGAACTCCT-1",1.57775937954478,6.60464425533308,2.83313903445247,-1.88305188105653,-2.83090205344031,-4.52380412005732,-5.41695906699443,-0.41091919811704,5.77468936425062,-1.43251614950063,0.156245105658843,7.03575147636559,1.92762126417172,2.08999889806604,-0.229555814994564,1.55079328048514,-2.52014278745312,-2.35043293813178,-1.74576181477472,-1.71089474292292,-4.04340757100707,-1.40395543855554,0.211512643050279,2.03095963364088,0.262779079424015,-0.47873625208143,-0.730492626993927,0.956598701109368,1.75305096834232,-2.99819390486353,0.695303444848371,-0.548610816084252,0.487816754846873,0.497456986049492,1.22456993785313,1.33202541398437,0.0895358759386664,-0.962795523519636,-1.02004963874179,1.46679925658531,0.992489458118582,1.95144345542792,-1.17323783051376,-1.27295896588253,0.243382070358451,1.41619355532699,1.49193148953068,0.385093229262612,-0.194475736119524,1.73070456810412
"AACGGGAAGCTGACAG-1",-4.33165820591562,3.22128368539064,3.82088882769848,-8.38121159873263,-0.210430364226893,2.36495451994541,-3.77092815233274,4.78241260099303,2.11998618978198,2.05865078200634,-2.04787022023347,-4.12930060102058,0.128736837314828,3.43233680179886,-0.684175799686301,-0.299533427761125,2.92761789371197,6.27268406816245,0.237217847559582,0.147089699487054,-1.92088600788909,0.538839893794919,0.185480580448321,-0.968695452980863,-0.136492760857459,-0.186549365109576,-0.711045301712129,0.65611084210915,-0.28712445737698,-0.660383543033759,-3.62346409788391,0.874691183759968,0.00288181025437516,0.107917730327466,-1.87729421980675,-2.4079393518681,0.314862101440723,-1.43614412723048,0.488534530865815,3.21548493879527,-0.641043277909701,-0.856197142075551,-0.442848855988734,-1.04611067557724,-1.36369998027202,1.39205150589934,-0.73774254112216,0.117402849267098,0.134403177951908,-2.18346671522513
"AACGGGAAGGCATCTT-1",-5.95866495393881,1.50841375820707,-1.1302005952921,-0.340234065046763,-3.23786469334913,3.06794876964988,-0.386119975699028,1.70071252670845,4.20403959458798,6.99547535766123,0.471031132205506,2.56357390714183,-2.94373955586013,-3.35450441924481,2.89097371946361,3.22686591928683,-3.24407798730349,1.00165180330383,-0.0425331561472489,-2.71874286844718,-0.767282055436855,1.20792793783533,1.53280384102826,-1.93503203020932,2.06015075907817,1.81141638734204,-1.79802984055502,-5.69076412318063,0.982863098845375,-0.475108008040121,1.89649309912715,-2.7755306421098,-3.95332484595581,0.746537954697874,-0.375165064563003,-0.859982496731545,-2.96064605348171,1.01434409734002,0.271888385860831,0.548883442009837,1.47619430138595,-1.80056835747609,-3.10578233369196,1.68993956814475,-2.05511777319586,0.604531435855578,-1.29255143131118,1.58786928478339,0.547165644583919,-0.906373650329408
"AACGGGAAGTAGCTCT-1",10.4612090812425,3.48408214729948,-8.82761795868913,-2.49645681881693,1.86973491757371,0.808433451367536,3.41562859112409,4.16884532859738,5.40814204440247,-2.16403213909495,2.14448912219743,3.64570568444344,0.0303449857342885,1.78975495417423,0.205699021704173,-0.9276613729438,3.42759589273529,-3.59222028831762,2.94643814677056,-2.63019531097392,-3.24459623088207,3.32257922006785,-0.375475141790678,-2.54448360225301,-1.37553359995079,-0.0226658013378826,2.20690488020772,-3.06324181971945,1.80552345912322,0.25132686123123,-0.081373986127183,4.745645110364,-1.23830803240745,-1.18331798048354,-0.0331700880960293,0.515808156908756,-2.39123719172692,-2.03469048598983,1.13656038672045,2.47075933697026,0.928485244198633,-1.31446741233117,-2.71622479954034,0.887699477306009,2.77531552655304,0.538414806940557,0.976210916258785,1.0081585487035,-1.65137762534652,-0.836850932971248
"AACGGGAAGTGACCTT-1",1.77988428654604,2.8298743630812,-1.65488887434882,-3.94510352633868,1.13844956255193,-2.45559266700928,3.45204037112254,-3.86007359812095,0.919439706939917,0.445167587099891,5.21620855176407,7.76927244836247,-1.93696101272829,0.542563110344325,-0.407062593040176,-3.20050325720688,2.17102026834595,3.63953519963018,0.938874261741282,1.91877046900973,-0.728442184302885,-1.61516278222887,1.9495819944412,0.240715980115142,-0.837894892043629,-1.10129981985035,0.0743142217887499,-1.81512106906639,-1.05092278958788,-1.31766832820387,-1.68610339780402,1.02918269321816,0.356889699204775,1.3126771923341,1.65255173695704,-1.92141892244872,-0.206966461365334,0.906050684114159,1.04218168737949,1.41348400420684,3.57860774768315,-5.14703725035491,0.286009337118782,-1.34503771068507,3.1223255179955,-0.160727408153926,-0.239207990280818,3.09680681839183,-1.77196350792755,-0.246683354302959
"AACGGGACACCTGAAT-1",-5.074734563676,0.0812581729393794,1.22377236987951,1.45775778431207,8.36783965607771,4.17941737525819,0.156095366327981,3.45162986080213,2.57337696409287,-3.97169466856207,-3.45398630388263,-0.5357370250396,-2.22022899958887,-0.427470240655484,8.06508087456704,3.00668203767412,1.02279526302457,-0.149864691523253,-1.77186289055042,-2.07323438662941,-2.01233677787175,-2.09007232822574,-1.46563835055033,1.45149020292738,-1.67904393400676,2.0213936145951,-0.945382097763144,-0.136619285094285,0.340510487420569,1.06440793143594,2.46689992874738,-2.6559912990746,2.84280798763948,-0.872859760700923,-0.667026823367125,-1.56198254846104,-3.42697850461264,-1.71758512723856,-0.349486561083574,-2.53466339912866,-1.93490105591958,0.0741364275817616,-1.1536766723815,0.0110642789725344,3.2216358206257,0.661021135594785,1.4907965040846,-0.262870355500198,-0.0898238977924675,3.06493318601554
"AACGGGACATGACGAG-1",3.1367314263359,11.154735476359,-4.28689155200865,-2.80792599595613,-5.84777658004591,1.43796519511735,2.51584777473095,1.46163710855162,-2.54841968587502,1.01916010321092,2.56400869595573,-5.09500844982192,-2.61892197712857,2.54648239750803,1.94219458381512,-1.65060978338593,-4.95653032839541,-2.88907092739973,0.310044347811007,1.89217953386526,-1.61498155119707,-2.72257609072412,1.6476902151524,-0.00256352094582821,-2.52775720904882,0.677216603485952,0.344692067712902,-2.07840520950589,-0.481822954821523,-1.22640273042334,1.08383434799929,1.03577326504094,-0.621500363130812,0.665342527665874,0.531047056794284,0.332184294466078,2.15816730325101,0.883686864372384,0.791065908480823,-0.359744628797845,0.339873917370095,-0.296385314739241,-0.726693038688201,-2.76241051994769,0.892300444954035,0.423502026425157,0.652313775637897,-0.239344152192153,1.05658251298717,0.179925495115625
"AACGGGATCGCTTGCT-1",0.280685674896085,-1.99567894868319,-10.3472606020123,-8.40739168094911,-4.18885632506726,-1.74169153401995,1.92670010894354,3.01693140749995,-0.950282415062324,2.57330761738867,0.783563096393466,1.44042638651161,0.833417578686139,0.31995618746706,0.0180160358368563,2.29517337815951,-1.67288793425984,1.70630680178589,2.53249128970922,-0.308279037971721,-2.76955179419971,1.36065123817004,1.54325062262469,5.08802061352082,0.882463851545174,-2.98242717944251,-0.123475605538199,1.80068816376735,-1.79074065818645,1.47115374884268,1.08818603349521,1.58885305720574,2.56752737252209,1.93431251481086,3.53501877919361,-2.7729598827769,3.40311220192317,-2.79210868055597,-0.609097437161874,0.216609804924679,-0.447532694775042,2.40727755135155,0.11162874219433,-0.729572465751623,-0.405843103105969,-0.49838902335655,-2.19447156424301,-3.74524563257496,-1.20150096670656,1.74654663667494
"AACGTCAAGAGTCACG-1",-6.21652052029174,0.916477269819434,7.65259652149783,13.284992386929,5.17366294083687,3.43621654083924,6.57726789871769,5.60690774014055,0.760523290254797,2.43156197468202,0.443280517750715,-1.24256963854276,1.98485340087785,4.13664233687182,-4.15131611695904,-1.67001775488707,0.519742936670006,0.712155595804759,-3.13435292438379,0.289854821038493,2.19903896752958,-1.48249934130001,2.0826683924336,-0.0985113551486913,-0.370385491424935,-0.594194746181354,1.24287669356391,2.83493254425586,1.17632042754792,-1.25579728577467,1.28658335422592,0.61157622473096,-0.620800526861419,-0.578736347360734,0.925383914903735,-1.87304580550539,-1.21101260919166,-1.25214428307323,0.696382473485583,-0.340543294434309,-0.966974890120107,-0.174298681409456,-0.188287310458343,-2.70897386184464,-0.426697117716633,-0.431488540597364,2.86992984684597,1.99909563581264,0.206762149197755,1.00179106536337
"AACGTCAGTCAACACT-1",-3.33767657682267,-3.86317202137535,-8.22999572095293,0.851465210893683,-4.26831197753788,1.9124514251334,3.50449699910408,0.0693349342234846,-2.6529482367771,4.51875631809243,-0.224203173669592,-1.96990426419495,-1.48270009658029,-1.90494423476169,1.78509296137242,1.62260061540025,-2.16402328693451,-1.34500160213215,1.82025746181342,-0.731932817861208,-2.20310561334771,0.238648187824512,-2.13241882472588,-3.51120708439802,-3.55608925919249,1.0724002825591,2.65510848156175,-2.24658623214503,1.1881543071802,-2.72458711809243,0.569120718592287,0.412663786023743,-3.410688540286,0.271164683057835,-1.292579443125,2.09330085518515,-0.808419397593419,2.25322451531104,-1.77570791175406,2.34811817889765,-1.31211569321761,1.5855005852317,-1.94068852823311,-0.457150515734853,-3.63834163292164,1.07817734747139,4.01494167954038,-3.38154065828214,-1.60941985860264,-1.85053311443134
"AACGTCATCAACTGGT-1",2.74895163060841,-4.65965701797325,-6.79855114146113,-7.1681940954709,0.0559524259819944,4.93996618966694,-1.13888398250624,7.96294141927761,0.0749066833633472,2.56829108399885,-1.77937636572184,-2.75703844588172,-1.04430745371766,4.11545346133057,0.47365917803073,4.22421412732469,-3.8030370456105,-1.6799752171792,-1.2523769679011,3.73185630096308,-0.734264474505757,2.81354141419193,0.647970083028383,0.484564548155959,-1.9462489610054,2.82144958077824,-3.23268594119772,-0.369320342007539,-1.17161825228991,-1.50551543283015,2.83059420141859,3.78285521107965,-1.12137883051746,-0.508935335258894,0.708834622377189,1.44747331028648,-1.53046057150429,1.04320475228783,2.42277692006295,-2.78031286761359,-2.29468746397543,-3.53353896380927,2.10600574394687,1.63509135631315,1.27188190760734,-0.602320194280967,-1.21541440339316,0.207819109255215,1.64821091533068,-0.655482131130009
"AACTTCTAGACATAAC-1",-4.88712040760148,-6.87564608601047,1.3020990879864,-7.40515650617657,-0.567140633465797,-6.44708006893692,2.36794090690884,-6.48308118620113,3.46646715095451,-3.90784662276268,-3.41603432869301,1.47687272431357,8.13779464598009,-1.12215097577986,1.51891160405056,2.56428074713513,-4.76103431715218,1.65534002440751,-0.416676815041517,0.33366829528458,-2.00533452288545,-0.97268331500304,-0.787436859488984,-1.43565800548257,1.45724974273266,-0.204558359630316,2.78788037945196,1.48087147345343,0.777893863437897,0.611138005435631,-0.0418521690789056,3.29042069976537,0.0786383489789687,1.41255180230468,0.725889062627262,-0.774933408029232,0.125206497253097,-0.0336717524653728,-1.32441799862988,0.826921160823322,-0.703040732770633,-1.34780697772939,0.788388333104872,-1.35717986907119,-1.5150037500332,1.59253112700213,-1.36536865732871,2.58043341184097,-1.56445155856438,1.17132838920728
"AACTTCTAGACCTCCG-1",7.66474824161319,-1.63314980696583,-1.35159374650644,-0.280373156327768,0.063136088188744,3.43970540246215,-0.192666151334298,-2.174423194756,-2.70449089238192,1.73639083024616,5.62377695687468,3.35034535676059,1.09624611745781,-1.0514250614017,2.00488294916958,1.26180594124861,-3.42463820111731,-2.56143052394882,-0.421539679787207,0.740912627147444,-0.101271821706426,2.53967696441716,-0.576464765238224,-1.54877617654655,-1.66105344561613,-2.5834908261404,-2.23720556265983,3.27819511519419,1.07875328177909,0.125613567894504,-0.984131929387699,-0.97861388074921,-1.87502320428032,-0.21542217513404,1.30119079883848,-3.42423709536247,-1.61131021363344,4.46538750416103,-0.743666090574569,-1.66900864672334,1.95570468080144,-0.329094836503082,0.345224693028235,-1.31403480748866,1.62574891226395,-0.0191985484325182,-0.78265304632347,-1.12534486676431,1.95027551706689,0.102403999443672
"AACTTCTGTAGTTCCA-1",-1.89518306885178,3.98888533779337,-1.10534789334854,3.06263536842943,1.2260607342586,-4.39587358376097,-0.250594855935179,4.54554672246373,-0.0962406052116173,-4.42059998042155,-0.787755133390685,0.715036298285968,3.61415707856352,-0.122028983169685,0.271906423400728,1.99769055923962,-1.83404000193991,-0.804258665039457,1.40868933464917,3.08828606515846,3.28465088309152,-1.15490672603992,-0.206404033164596,-1.38233823589369,2.21440243028041,1.95064360846868,3.60760055649667,-1.85725489841116,-3.31658050629148,0.67476966040444,2.0995116517111,1.17644985069055,0.172659919978191,2.28662612809245,-1.28330318582497,0.534777915530309,-0.284576392902772,2.26831665752795,-2.02036363172495,0.0213883167492091,-0.526306831203164,2.39329747536336,-0.740251994767859,-2.55968527309021,0.0517530294331376,2.2513802392476,1.06138828203248,1.14379929299119,1.07081680982724,-0.338628256351343
"AACTTCTGTGTGAATA-1",7.81554257569422,-4.73219810539247,-8.86092234700767,-1.89575204444051,0.260908756101395,-3.12009520367694,-2.57741542743219,2.53364955970538,-2.87706148886382,-1.52043066845616,-1.79264851254014,-0.956191996560544,3.82614277833775,-0.72555534358604,2.56626254756174,0.0189045674336368,3.78784525326861,0.414687061003243,0.811769162799366,-3.4822743363325,-2.29006007923983,0.329274032782063,1.47326683789451,2.18126856889003,0.669037183031218,-4.81354991225377,-3.17991051516515,-0.116838759202867,-2.72547104196847,-1.57671873937592,2.09222788100346,-0.359117143057067,-0.0403523199351141,0.416061322626696,-0.293378856248307,-0.254301421850866,-2.71887176852284,0.878526290995251,-0.612056362450411,-0.918979845483298,-1.20727106185905,-2.41230689604533,1.02367953854298,-0.0277090555020715,-0.572584234156731,2.58651998870616,0.448932648015866,1.55984494261719,1.68110283511902,1.1360880834349
"AACTTCTGTTACGTAC-1",1.07944074017957,-2.57424383895861,-8.64961278009075,1.162745516096,0.180950929323436,-0.651154347590302,1.19252673017956,-3.44105286592997,5.32819238126855,-2.9068232645811,4.09310450793435,-0.0165872076263535,-3.36579142669502,0.251935269811773,-2.18948014484967,-1.00021231786698,2.04335891729716,-0.669110877656403,-0.14131600123824,-2.97722482527717,1.52414062992244,-2.59766776280292,2.55539425599852,-0.590116403594184,-0.615065451873712,2.58842979806972,1.44235405813902,0.0340040284615673,-2.90743577240031,3.40564462902192,1.59112569232877,-2.09512107138803,-0.415243351022754,-0.344185557282265,0.848141826627213,3.03313032700081,0.222999073368141,-1.12624129616628,-0.960499910308747,-0.174594485066731,-0.968279191885893,2.58433721289836,2.10670512507125,-2.12477991732426,-1.60438179773064,2.37459202772487,-2.18935894452627,0.617196527404929,0.265408046830619,-1.16431441699704
